1182 100
the -0.26155308 0.08185576 0.05817428 0.43249828 -0.6591762 -0.28830028 -0.096956834 0.3025339 0.061959222 -8.209236e-05 -0.7069964 -0.34797773 -0.4095617 0.3247942 -0.36340785 -0.114121854 -0.68910635 0.2655161 -0.25504598 0.24568637 0.19385047 -0.078478575 -0.2858307 -0.108051345 -0.013257802 0.33724764 0.25863984 -0.08234966 0.40810642 -0.24878104 -0.4449894 -0.21100715 -0.17334543 -0.25194123 0.6910877 0.323066 -0.21525225 0.29871365 0.04038813 0.7397176 0.14853752 -0.050814755 -0.19165584 -0.60950446 0.16629325 0.05936987 0.4137414 -0.16104022 0.16849376 0.13787423 -0.7116204 -0.2278157 0.6513258 -0.13591066 -0.059390727 0.50907433 0.23360968 -0.19980569 -0.22877014 -0.35051027 -0.2943708 -0.2450419 -0.33947027 -0.13155308 -0.42471853 -0.09271728 0.23876515 -0.16312124 -0.19284044 0.62564886 0.16220659 0.09354704 -0.24842465 -0.27002227 0.39630812 -0.11001601 -0.101241566 -0.21050608 -0.004016413 -0.49525338 0.18067832 0.31851596 0.17169525 0.41683877 -0.18406066 0.4908558 -0.30951768 0.36104858 -0.32512176 -0.18606584 -0.28862822 0.26996213 0.51559645 -0.554776 -0.0021916928 0.33308318 0.15392645 0.06283186 -0.06897164 0.38877627
and -0.058837313 0.31464264 0.03444192 0.12283545 0.10701932 0.2707736 -0.092913546 -0.09314801 0.07450337 0.2481832 -0.106857434 -0.18239522 -0.1287157 0.07223911 0.2915193 0.12072168 -0.116728276 -0.0621087 0.40009934 0.25005132 0.10385216 -0.32180697 -0.021142183 -0.17997712 -0.041730497 -0.26494536 0.0418326 -0.20992036 0.23239602 0.28789207 -0.124398336 0.18125416 0.045489028 0.19513442 -0.048873894 0.33649704 -0.06579219 -0.050562873 -0.29788488 0.09102301 0.45542872 -0.15866278 -0.26707652 -0.11004175 -0.08867675 0.11498561 -0.20432033 0.07232566 0.24137919 -0.05210667 -0.043694194 -0.21578982 -0.15880515 0.07342231 -0.023365522 -0.07989672 0.014249836 0.123864174 0.3195097 -0.3102407 0.0070001353 -0.23751312 0.061542545 0.090147495 -0.021817531 -0.19175188 -0.057726767 -0.14578594 -0.21941496 -0.16017829 -0.020662583 -0.24264361 0.08346194 -0.15136349 -0.10968889 0.013909174 -0.16703038 -0.11833883 -0.014920483 0.12878326 0.057043385 -0.0022789084 0.22631373 0.15809274 -0.7510783 -0.4075738 -0.018440213 0.157098 0.14353761 -0.019983022 0.14897674 0.025433248 0.052091666 -0.24402936 0.31767616 0.123275876 0.026261473 0.21498333 -0.22301742 -0.1738243
to -0.061478034 -0.223065 0.015594505 -0.1628369 -0.011070532 0.023870837 -0.23418432 0.028718153 0.4176776 -0.09112209 0.23711523 0.020155666 -0.14760451 0.1502226 -0.086619556 0.119209275 0.12960163 0.10604522 -0.13193761 0.091491066 0.14095123 -0.28551024 -0.328037 0.1195652 -0.020974575 -0.3503011 0.43592164 0.07998465 -0.13616027 0.27176425 0.26827443 0.024422908 -0.22498527 -0.14053583 -0.17847103 0.6118141 -0.09500078 -0.1407757 -0.14015907 0.70639265 0.105546005 -0.03237391 -0.045920577 0.11742948 -0.18190606 -0.26458517 0.042815287 -0.23529501 0.45247087 -0.08532578 0.07610013 0.07826206 -0.31893888 -0.008108013 0.008056298 -0.36090198 0.2729409 0.16452341 0.17376621 -0.21185777 -0.3451104 0.072034255 -0.21821874 -0.27733868 0.05603514 0.18914157 0.7619827 -0.17278971 -0.18983623 -0.27432066 -0.23868795 -0.012212364 0.08252688 -0.010817712 -0.15380487 -0.024274837 -0.086098686 -0.2977298 -0.116293535 -0.03674794 0.16339375 -0.20764592 0.18876687 0.37616307 -0.41135114 0.45308864 0.1161664 0.115472294 0.1101748 -0.25629994 0.15388358 -0.08006541 0.38887653 -0.08531215 0.30395898 0.010474945 -0.052205544 -0.10499776 0.12977265 -0.04312737
she -0.1954176 0.040242698 -0.16446152 0.1477253 -0.26734638 0.38501295 -0.2578899 0.096276924 0.16914536 0.05401057 -0.047332425 0.053362995 -0.2581369 0.28075403 0.14380044 0.08332729 -0.20724685 -0.033842802 -0.09950214 0.078128785 0.0949185 -0.2595157 -0.1118779 -0.19920203 -0.34583104 0.06814069 -0.0007720303 -0.86883014 0.27837005 0.6728558 0.21405898 -0.24602227 -0.42198122 -0.31887177 0.49725088 0.6843537 0.09556838 -0.27179104 -0.6130915 0.34690842 0.041812878 0.19145729 -0.12446434 0.024626622 -0.5563711 -0.3322826 0.13219124 -0.47185168 0.25743178 -0.36751986 0.4159994 0.1338833 -0.16623563 0.39496085 0.33966786 -0.026952898 0.34802482 0.1443801 -0.3048041 -0.11865325 -0.2365454 0.15987231 -0.59892327 -0.026748763 -0.25623927 0.13905844 0.26422572 0.123071305 0.018247316 0.08933903 0.24621694 0.0011984613 0.08937483 -0.2909425 -0.22479148 0.41054958 0.0015991405 0.012304033 -0.40757906 -0.2706408 -0.07355437 -0.12043912 -0.35720852 0.14608712 0.657459 0.13561551 -0.27822182 -0.15797557 -0.13336885 -0.25707993 -0.24319234 -0.4862871 0.22882298 0.0021859044 0.15210553 0.19272293 0.0076520294 -0.10762917 0.06283264 -0.24702553
a -0.24036224 0.21446913 -0.30008936 -0.23365627 -0.22599632 -0.18023722 -0.13837044 -0.05352493 0.10912678 0.36299413 -0.18324979 -0.5178047 -0.42520723 0.22809683 -0.38885197 -0.27286226 -0.374941 -0.12633331 0.0075921803 0.23010194 0.10068169 -0.07942593 -0.5042716 0.037255634 -0.1820412 0.15862793 -0.25072885 0.30703434 0.13764887 -0.54072154 -0.2315321 -0.3572418 0.080599666 -0.46757618 0.52337766 0.35077414 -0.049965996 0.15965235 0.08150528 -0.2111081 0.22540437 0.17770745 0.111808375 -0.42264858 0.16995995 -0.23726623 -0.23388204 -0.18510765 0.10746527 -0.10521843 -0.5355872 -0.19724545 -0.15706612 0.3026675 -0.14357792 0.4821484 0.52049005 0.11618207 -0.065905444 -0.20804395 -0.23041403 -0.053443413 -0.4686288 -0.14497766 -0.25943676 -0.11225427 -0.11780096 -0.2839022 -0.10476195 0.64422137 -0.066253655 0.11974587 -0.36433533 -0.1013869 0.07795478 -0.27777246 -0.3071006 -0.29955602 -0.25467983 0.3401654 0.21054603 -0.019815775 0.10608434 0.08341554 -0.2408641 0.02296219 0.057639234 0.41192517 -0.17988825 -0.2162583 -0.043050136 0.47476602 0.19957477 -0.23778753 -0.13625574 0.06712471 0.31751904 0.113560006 -0.10034761 0.27574685
i 0.23628922 -0.9962481 -0.43663013 0.27889267 0.26587018 -0.24925889 -0.16008703 0.32998365 0.43501866 0.37891883 0.39720124 -0.22046909 -0.18163879 0.15462787 0.34269503 -0.23816969 0.2519698 0.22010756 0.049465094 0.26676255 0.5358772 -0.098311916 -0.47306538 0.48363584 0.21862411 -0.19676527 -0.15942858 0.5197362 -0.13389573 0.053608764 -0.31210777 -0.13816623 -0.48988894 -0.62576246 0.015920587 0.20887765 0.43975314 -0.2644804 0.38150376 -0.65706486 0.14516503 -0.92066383 -0.368148 0.342004 0.2769725 -0.31425536 -0.21721222 -0.5220958 0.17198314 -0.12603505 0.723061 0.12241418 -0.14453457 -0.14295052 0.026373956 -0.4779708 0.15573527 -0.30669302 0.25494593 -0.032448765 -0.09820329 -0.19526994 -0.1824135 -0.16874598 0.5537673 -0.32119802 -0.013198862 0.6240931 -0.13052285 -0.3860105 0.10757755 -0.06756329 0.23701984 -0.14490911 -0.23841853 -0.13446191 -0.13681668 -0.18071395 -0.30723733 0.28322592 0.2439117 -0.40520135 0.3101486 0.079681225 0.8941365 -0.25093338 -0.6022926 0.16209634 0.29360673 0.15964662 0.39207512 0.23683423 -0.23252827 0.7224387 0.3751769 0.38624254 0.4098456 0.32872427 -0.13858068 -0.1434346
it -0.000102969774 -0.14273489 0.07687695 0.3146608 -0.03644223 0.078472346 -0.1193691 -0.010370368 0.27490366 -0.14933868 -0.03515979 -0.028856887 -0.16666695 0.37290385 0.13957433 -0.07208999 -0.22368474 -0.06204815 -0.12213266 0.20068371 0.11601266 -0.101098135 -0.15580335 -0.24144655 0.2527476 0.22078766 0.7177364 -0.20630571 0.13606016 0.3125427 -0.022592437 0.21968846 -0.2854676 -0.20346172 0.27111906 0.30240327 0.2872385 -0.2991193 -0.27386105 0.23182489 0.20789096 0.16988303 -0.25699463 -0.09640367 -0.67204314 -0.18253884 0.13594691 -0.24238697 -0.050337262 -0.18795684 0.13972719 0.021134946 -0.19047908 0.2435317 0.4908523 -0.028065862 0.01285583 -0.1013424 -0.088714875 0.09692125 -0.10279323 0.13951705 -0.39519987 -0.0058293333 -0.27576843 0.18299498 0.2032742 0.16719605 -0.11616323 0.00047041982 0.27479097 0.0619052 0.023824573 -0.29406023 -0.058808874 0.45913374 -0.0277129 0.06686588 -0.08554947 -0.2863492 0.066161476 -0.09448196 -0.16443431 0.08601365 0.13382824 0.07483915 -0.42317066 0.036571734 -0.04690136 -0.008841255 -0.11751083 -0.09660924 -0.13436589 -0.24226579 0.1402093 0.2687641 0.22655506 -0.019752814 0.08194618 -0.12336196
of -0.4981692 0.24987471 0.35631558 0.16341043 0.09246753 -0.04438526 0.09908087 0.3299271 0.020388274 -0.00061595044 0.24886732 -0.1491537 -0.074561104 0.12782718 -0.1062601 0.082014784 0.006196837 -0.122617394 0.21046422 0.07865052 0.18719909 -0.37965608 0.12927958 0.056338254 -0.367634 -0.0751409 -0.51340944 0.21522519 0.15255994 -0.40685743 -0.19441772 0.20939706 -0.31529135 0.5589551 0.07818111 -0.3826957 -0.5194748 -0.2370915 0.28274578 -0.12961751 -0.13754712 0.036535535 -0.13393633 -0.17828214 0.00020201434 0.16630885 -0.16180018 0.18038525 0.0042563383 0.457478 -0.26698756 -0.4031844 0.0827391 0.15598366 -0.6008775 0.062013917 -0.18928409 0.5029374 0.35464635 0.019495249 -0.05104642 -0.17962329 -0.13946469 -0.05328122 -0.08487961 -0.23294386 0.5232456 -0.7488551 -0.2483251 -0.08125144 -0.41838562 -0.32497883 0.2891177 -0.28782022 -0.29742956 -0.18586162 -0.122302935 -0.14399482 -0.14364947 0.05312218 0.38147932 -0.05973026 0.28021264 0.014430763 -0.6282958 -0.010704062 -0.26269275 0.048347726 0.38980746 -0.03894186 0.26640403 0.08923983 0.27200773 0.64098614 0.40655845 0.2241665 0.079160966 0.31047592 -0.17780793 0.24432951
was -0.082057364 0.18853487 0.2677091 0.0022786953 0.21688887 0.17257378 -0.09103654 -0.32439992 -0.016025696 0.37400907 0.055049255 0.048495777 -0.03397573 -0.14049052 0.20001602 0.06841843 -0.020039199 0.07840124 0.35936216 0.058900874 -0.025117392 -0.24977773 -0.023307933 -0.09474687 0.06227322 -0.037223242 0.027013712 0.13668732 0.070496984 0.06387379 0.111069426 -0.09470301 -0.076107115 -0.04791587 0.10290905 0.038652506 -0.57611704 -0.33636543 -0.042946428 -0.09166198 0.28480157 0.41958934 0.016293181 -0.08463796 0.16011655 0.0061916276 -0.08283756 -0.013485704 0.14277194 -0.06771268 0.04423468 -0.06296842 -0.1617049 0.18417475 0.010509262 0.23329611 -0.08116743 0.05324779 0.43223158 -0.07917941 -0.09027733 0.093920484 0.12252329 -0.054866023 0.2802003 0.042942934 -0.13028283 -0.12903666 -0.20314491 -0.1051541 -0.1462985 -0.093189105 0.15889803 -0.0812714 -0.19983135 -0.006251584 0.07061087 -0.010247956 0.14064495 -0.27339035 -0.027330007 0.12555179 0.061942056 0.049625244 -0.13435002 -0.1500427 -0.0073072566 0.049671754 0.106377065 -0.050623078 0.26091018 -0.2255174 -0.3130746 0.2381074 0.15294677 0.17568201 -0.07668346 0.16015165 -0.20978154 -0.25438213
in -0.04077489 0.25576544 0.39218944 0.107803896 0.04191297 0.19638768 -0.17080016 0.091107346 0.21537688 0.17949758 -0.03794483 -0.29814762 -0.112345874 0.22340861 0.035189725 0.10756711 -0.010130191 -0.03196001 0.16582894 -0.0026296026 0.05210344 -0.32713503 0.18254106 0.011297847 -0.14843686 -0.20570698 -0.3430424 -0.25671062 -0.04867732 -0.05951553 0.09194225 0.27447048 -0.41299036 0.06318014 -0.06387484 -0.062523596 -0.43784374 -0.04643405 0.018194217 -0.10705311 0.12510261 0.20549849 -0.13692959 -0.08686775 -0.118571356 -0.017418617 -0.05484248 0.055686902 -0.00025751648 0.09216089 -0.09915296 -0.117833115 -0.2264462 0.26249918 -0.3890777 0.091358766 0.061022528 0.5467445 0.40056407 -0.13391878 0.004983896 -0.16918626 -0.07219358 -0.22070421 -0.002120697 0.09005621 0.31672496 -0.48027894 -0.12582631 -0.2912218 -0.23177293 -0.18872556 -0.08535951 -0.07609432 -0.27882257 -0.23472458 -0.06782785 0.0011741556 -0.13771081 0.05024133 0.05329727 0.03470528 0.21958768 0.03658656 -0.55014944 0.071821466 -0.15231735 0.1692041 0.26177445 -0.05807741 0.063767 0.052579563 0.24370022 0.299076 0.39976314 0.099669635 0.06278765 0.09220607 -0.21377689 0.03512503
alice -0.13839757 0.17915384 0.17318791 -0.102232635 -0.09301318 0.16186899 -0.009782403 -0.22822201 0.19175929 -0.04475834 -0.082014196 -0.1600754 -0.24022222 0.10564485 -0.15163517 -0.014444992 -0.0886722 0.06905138 -0.12548217 0.07325639 0.010687752 -0.12213843 -0.06592353 -0.19287145 0.04794028 -0.074855514 0.12756838 -0.58616793 0.20084924 0.26528022 -0.011944946 0.22993074 -0.40755734 -0.16185439 0.30371383 0.16370352 0.24218732 -0.093256906 0.269762 -0.0960478 -0.0026966694 0.047026664 -0.087253086 0.020090597 -0.031665068 -0.29321247 -0.0011164106 -0.19530952 0.2069722 -0.1371479 0.0035517632 -0.025169833 -0.2066245 0.17909725 0.194008 0.11031016 0.19967546 0.013850237 -0.077613086 0.091963775 -0.33264098 -0.22473311 -0.2977376 -0.29313365 0.12035141 0.05841537 0.11889981 0.029775895 -0.06531418 -0.1606412 0.107857354 0.06392268 -0.04755191 -0.16490398 -0.10223891 0.2667024 -0.21384326 -0.17844662 -0.19837113 -0.092846416 0.07567729 0.004130995 -0.00061452994 0.21934779 0.29177308 0.06552864 -0.091637984 -0.004565268 0.066577405 -0.20641476 -0.020367261 -0.22655316 0.2397885 -0.33120036 0.046950985 0.057214845 0.2700683 -0.167315 -0.114316285 -0.17989348
you -0.18698682 0.11481221 0.1286592 0.128867 0.052653566 -0.036215883 -0.07672332 -0.12895086 0.25573006 0.06577206 0.07454463 -0.002797993 -0.14118594 0.06608047 0.11847519 -0.28462154 0.042327225 0.35696653 -0.2513301 0.3827055 0.12110493 0.14416723 -0.21088451 -0.033756033 0.021781066 -0.058877345 0.23324685 0.12503946 0.10315489 -0.02350835 -0.17481224 -0.13401018 -0.1648355 -0.2099478 0.06452302 0.012938882 0.3403906 -0.17168897 0.1266877 -0.285547 0.1556296 -0.36594233 -0.34309784 -0.13372381 0.21333632 -0.3259189 0.02392704 -0.18012185 0.061471697 0.09433926 0.22922304 0.0044573424 -0.21286464 0.11878262 0.1275024 -0.031406354 0.29959485 0.10636466 0.010581123 -0.27072427 -0.17691147 -0.14169432 -0.03837516 -0.104321875 0.016213134 -0.21734403 0.13474701 0.30947122 -0.046463896 0.027738938 0.051055502 -0.034160223 -0.115752585 -0.08079298 -0.25011662 0.051777653 -0.24412729 -0.16817378 -0.0020540913 0.04416575 0.21210547 -0.104284376 0.14276399 0.09311897 0.3019946 -0.15236637 -0.28534627 0.14245443 0.14579177 -0.09616466 0.03547455 -0.00023847287 -0.07959623 -0.04018232 0.06344629 0.22267756 0.1363033 -0.027228475 -0.14347318 -0.24513093
that -0.08341643 0.16146159 -0.100435525 0.041349065 -0.0056815445 0.011899868 -0.043951947 -0.20491505 0.007309976 0.15771094 0.01814861 -0.0975607 -0.038359195 0.24237722 0.05475566 -0.10959506 -0.10547218 -0.02108911 0.08485816 0.122173056 -0.043412916 0.008446323 -0.07644107 -0.33650947 0.16096017 0.036985997 0.09503283 -0.19520886 0.18570827 0.2316576 -0.015292122 -0.17918813 -0.15049425 0.03263411 0.13967122 -0.16936664 0.11551645 -0.18274343 -0.02241603 0.05678746 0.07485906 0.114506215 0.049297623 -0.18215035 -0.18289864 -0.07901676 -0.044942163 -0.12668101 0.16372849 -0.065425105 0.019199746 0.010664707 -0.25653362 0.18004467 0.06502354 0.005226232 0.18266754 0.012127393 0.015012681 0.022896815 -0.06438126 0.12798753 -0.14804985 -0.016069602 -0.089220904 0.23621598 0.13344844 0.07830755 -0.19860364 0.1835006 0.016251475 0.032531615 -0.13668649 -0.037422724 -0.18915029 0.13192366 -0.14058577 -0.036034044 -0.12550122 -0.065519765 0.07705648 0.05867213 0.08706096 0.12781055 0.045305867 -0.10626182 -0.13681707 0.114402324 -0.042467896 -0.11475831 0.05576784 -0.057539705 -0.10509782 -0.15053703 0.040123694 0.017071843 0.06462469 -0.07767044 -0.12131643 -0.18804497
her 0.034058377 0.31950164 -0.20235194 0.07848359 -0.10301672 -0.012029855 -0.14546214 -0.0792484 0.107432336 0.10642496 -0.111598656 0.04535475 -0.23411717 0.29931247 0.2883318 0.11223448 -0.23839264 0.13596418 0.17848223 0.19787335 0.13399589 0.046857625 -0.095013484 -0.13559373 0.14423922 0.076716654 -0.16960189 0.19059673 0.35766894 -0.010108483 -0.11549632 0.16396715 -0.1535412 -0.1531232 0.26970842 0.12684838 -0.029981414 -0.1765401 -0.12350021 0.23540545 0.30181637 0.16096592 -0.14141697 -0.30200914 0.032527547 -0.38046402 0.12047692 -0.18707035 0.23009802 -0.017947447 -0.36992538 -0.0318684 0.0041177557 0.10682728 -0.11481787 0.23969015 0.16685343 0.051651098 -0.05363045 -0.037850134 -0.22415581 -0.022538329 -0.17541802 -0.06758948 -0.28917646 -0.18180531 0.044495594 -0.043877635 -0.18114185 0.26435396 -0.041684367 -0.12772623 -0.05565224 0.036493972 -0.14742608 -0.21785372 -0.12204301 -0.16438629 -0.1438864 -0.2392212 0.08485322 -0.10224366 -0.00037959567 0.43236664 -0.12284169 -0.21087553 -0.11658604 0.44660735 -0.037456274 -0.18388103 0.113717906 0.194981 0.010609211 -0.06802324 -0.023119064 0.15462142 0.1254732 0.0851209 -0.07613662 -0.1364829
as -0.06516297 0.199342 0.006480087 0.1368462 0.039707042 0.21891397 -0.2824975 -0.072092295 0.017833987 -0.007579278 0.040242177 0.17122783 -0.086760946 0.18280442 0.14363194 0.09853689 -0.013004317 -0.18635313 0.009687684 0.04759109 -0.07546719 -0.3378272 -0.0358309 -0.30590495 -0.07054531 -0.08000862 0.22634418 -0.39588192 0.016805658 0.4733504 0.10154043 -0.38315293 -0.033341 -0.07517189 0.08226475 0.021125183 0.02079514 0.024414143 -0.38541192 0.10620392 0.56629366 -0.42827448 -0.033853296 0.019931959 -0.2776635 -0.28066143 0.07820992 -0.19718474 0.40232208 -0.22182246 0.27088913 -0.0063063777 -0.22058666 0.22368816 0.16302055 -0.11762891 -0.053456508 0.33422047 -0.0725417 -0.27338597 -0.031157691 -0.08904598 -0.14455454 0.11131931 -0.20005336 -0.033540316 0.11588388 0.036721837 -0.22146209 -0.025538864 -0.016258156 -0.31113207 0.20282084 0.029461117 -0.16421804 0.13844998 -0.0054856283 0.05342913 -0.10318293 -0.20397247 -0.1906308 -0.12337175 -0.18034895 0.08928536 0.14867865 -0.26334953 -0.13569933 0.24724752 0.1444886 -0.16224352 0.019263137 -0.19276568 -0.1627633 0.006828524 0.18542242 0.05434067 -0.27875373 -0.0321128 -0.05182696 -0.39167
said -0.21076784 0.0857879 0.19975282 0.039881807 0.059246812 0.19919445 -0.20228373 0.07805158 0.037565917 0.013738368 0.10647259 -0.12732978 0.19797376 -0.014874182 0.0037605297 0.011288499 0.148137 0.0037026368 -0.05961997 0.09140348 0.03500914 -0.12338312 -0.020973744 0.09218378 0.25699612 -0.057746284 0.13546781 0.07435186 -0.14958979 0.046469565 -0.013105242 -0.21645178 -0.08222045 0.054067478 -0.24144755 -0.120887995 -0.110294886 -0.095032 -0.12790465 0.04169195 0.30265585 -0.26581284 -0.09396132 0.11832364 0.34872884 -0.06970134 -0.028717091 0.11633556 0.19496448 0.06601542 0.18384653 -0.11196072 -0.0645524 -0.058608316 -0.014775405 -0.124024875 0.19899566 0.09970792 0.23288237 0.00035670522 0.075454086 0.013364218 0.025220688 -0.021233933 0.040157836 0.059681274 0.12161858 -0.026646707 -0.032822438 -0.04609854 -0.20703219 -0.04350247 0.042143602 -0.122742034 -0.10604113 -0.19436887 0.19485211 0.14584607 0.092953764 -0.2041325 0.13838123 -0.0006795086 0.29446182 0.084271386 -0.270452 -0.27999604 0.04892896 0.27766588 0.09421809 -0.030869264 0.056922253 0.07403844 0.10979014 0.09283174 0.10166464 0.060982153 -0.15984441 0.11240863 -0.09897652 -0.16428556
had -0.08891407 0.3220721 -0.054667026 0.13578855 0.18500188 0.038339566 -0.14833607 -0.21905245 0.073741704 0.2394728 -0.1274802 0.035632167 -0.0002373131 0.14902277 0.258989 -0.11572138 -0.0677792 0.034613248 0.1342655 0.077004306 0.057336528 -0.036851585 -0.05043745 -0.005534823 0.35358012 -0.003367994 0.16984479 -0.08414048 -0.0029326319 0.16323826 0.16849004 -0.10677729 -0.049694 -0.14830424 -0.031494237 -0.047216926 -0.22860827 -0.006554607 -0.14796129 0.060061555 0.37661043 0.09604403 -0.02414518 -0.1545511 0.010934666 -0.030249225 -0.099145286 0.11168859 0.29679042 -0.09999281 0.17349586 0.05093704 -0.21724205 -0.053157955 0.05133662 0.18332204 -0.07566098 0.22845791 0.24864496 -0.020593693 -0.10669624 -0.058795374 0.012682299 -0.046916366 -0.051024362 0.15078063 0.053493742 0.1546179 -0.06974483 -0.005083591 -0.048071846 -0.095871836 -0.032723013 -0.06586328 -0.15352695 -0.017235233 0.17932825 0.02361353 0.013306187 -0.26603562 -0.022023767 0.18548347 0.041148227 0.06534765 0.14504668 -0.19495995 -0.010283198 0.0756366 -0.026071467 -0.22454825 0.1348564 -0.040563833 -0.1399851 0.06612652 0.022250468 0.03174848 0.024160322 0.1564581 -0.12397358 -0.30132028
for -0.25151527 0.07570877 0.07483578 -0.073825024 0.042847365 -0.043173797 -0.016258195 -0.15813084 -0.008548778 0.1645304 0.101493075 0.014591153 0.0145635335 0.034807835 0.12439855 -0.13099568 0.019264698 0.121698044 0.032843202 -0.010521724 0.079270124 -0.068603076 0.0015601836 -0.07066851 0.0288164 -0.11500557 -0.046654563 -0.079555154 0.051330537 -0.11212842 -0.1558658 -0.07431892 -0.13219029 0.123863444 0.021624349 -0.103871875 -0.10282991 -0.07304616 0.04694775 -0.11419108 0.11088778 -0.11588338 -0.17894234 0.011366226 0.09933848 0.0021767237 -0.03097039 -0.091831364 0.124904945 0.10056236 -0.024442634 -0.12875982 -0.11544423 0.094977036 -0.17797267 0.048546955 0.02194111 0.1769628 0.16373947 -0.15655123 -0.0700354 -0.1710402 -0.11266349 -0.012758308 -0.07781254 0.043632016 0.16271953 -0.18528257 -0.10012039 -0.030759696 -0.18992426 -0.18166769 -0.0029360065 -0.111770704 -0.15549533 -0.04236362 -0.17199093 -0.1284934 -0.09553805 -0.047111124 0.04863564 0.09082223 0.16078942 -0.024643201 -0.04515091 -0.15602422 -0.20198987 0.06103874 0.20232925 -0.17792673 0.06772171 -0.01866904 -0.20893613 0.2544434 0.13868997 0.076271944 0.12981327 0.04973919 -0.20571686 -0.07268959
but -0.10858242 -0.089906804 0.0024026441 0.0031206969 0.19487482 -0.11185973 -0.14872424 0.001115404 0.12068127 8.981628e-05 0.096279174 0.015723057 -0.0028308178 0.133936 0.067714676 0.03560874 0.063533485 0.12657589 -0.011012325 0.114351 0.17463483 -0.12232636 -0.070991 -0.13137107 0.050055128 -0.09742274 -0.04049943 -0.043037783 -0.022891412 0.07822876 -0.18426643 -0.05476191 -0.10053924 0.24846596 -0.03950315 -0.23261501 0.119962744 -0.09304042 0.0798859 -0.010565512 0.016249174 -0.17796642 -0.18650033 -0.12432442 0.17473583 -0.044385936 -0.21865967 -0.12834305 0.03725733 0.119643226 -0.0104943 -0.11451338 -0.061825525 0.01197147 -0.05811665 -0.21452315 0.117429204 0.09963217 0.10668845 -0.10331795 -0.018625667 -0.20369188 -0.0016724193 -0.037986238 -0.040235747 -0.04228202 0.11463767 0.010754002 -0.08179605 0.05595603 -0.014070411 -0.10292772 -0.11633831 -0.13630879 -0.06945373 0.08159119 -0.20455773 -0.16819145 -0.091539495 0.06306273 0.21995565 0.07623262 0.25494245 0.018853316 0.04589703 -0.26296332 -0.07362274 0.03334541 0.08506459 -0.075907394 0.12063715 0.02527039 -0.07322709 -0.02231815 0.12189223 0.15249069 0.14500555 0.18460703 -0.104808815 -0.07760978
be 0.15863672 -0.11586094 -0.05115285 0.092602514 -0.09003198 -0.12610303 -0.026081016 -0.082436316 0.26084846 0.058451235 0.06680144 -0.08896275 -0.03724802 0.10182663 -0.082650825 -0.123925544 -0.06639412 0.020859033 0.27913812 0.20529982 0.2432351 -0.030834049 0.0026251557 0.06459059 0.27562612 -0.10029745 -0.14035852 0.30435714 0.10189936 -0.09202914 -0.19518052 0.20939156 -0.23292047 0.029646367 0.027622713 -0.24594952 0.11413485 -0.090623915 0.33314812 -0.098569706 0.1340416 -0.1390463 -0.08648882 -0.08041469 0.016995039 0.0005055869 -0.15123989 0.014024126 -0.08688164 -0.0019507027 -0.26704535 -0.0037648878 0.09806017 0.26608247 0.1704201 -0.1280086 -0.065933764 0.019200599 0.21587074 -0.03757393 -0.26942134 -0.2868792 -0.053218327 -0.08615568 0.024942476 -0.0919543 -0.058758426 0.021588773 -0.18201332 -0.24564959 0.03319622 -0.101776935 0.009562133 -0.18822852 0.13723226 0.048699442 -0.25564614 -0.31637585 -0.2667083 -0.091911845 0.18311813 -0.032178193 0.14091326 0.2899674 -0.16832775 -0.32182434 -0.090262204 0.03709636 0.05032303 -0.04891919 0.027957905 0.062175743 -0.031443052 0.15082549 0.10111103 0.07625675 0.13120347 0.08573124 0.0027474596 -0.1969125
on -0.19956557 0.16810279 0.04250683 -0.025229823 0.089186415 0.03301097 -0.26927948 -0.16539477 0.08791635 -0.018903863 0.03862309 -0.07591533 -0.04554528 0.111085296 0.13463198 0.12532677 -0.14457698 -0.04683399 0.25452012 0.0555478 0.0980778 -0.25210178 -0.034855712 -0.09844244 -0.058183692 -0.10844153 -0.18433546 -0.19945668 0.13835676 0.2491229 -0.03774122 0.011423213 -0.107868806 0.13812466 -0.040818393 -0.20890906 -0.25126576 -0.11661496 0.04748806 -0.0058425013 0.20604949 0.13438217 -0.10103877 0.043258518 0.06746206 0.006232998 -0.021742534 -0.04473914 0.13906187 -0.0046591577 -0.06649622 -0.20577575 -0.13814665 0.03534881 -0.18078393 0.004408177 0.027046923 0.2762424 0.26867422 0.0012685183 -0.031078584 -0.18457982 -0.07370122 0.025837384 -0.061475437 0.0013278577 0.21258982 -0.17911237 -0.22460279 -0.040359948 -0.08416177 -0.1688792 0.06797445 -0.122031756 -0.09173328 -0.036989994 -0.122844055 -0.110970475 -0.06921283 -0.019675875 0.048602935 0.13345855 -0.021331878 0.16513647 -0.16406694 -0.18404402 -0.0107973395 0.009142727 0.09952055 -0.009997396 0.09489913 0.05916634 -0.00038785604 0.17717254 0.2128857 0.12947682 0.023425 0.100007534 -0.18692014 -0.1524659
all -0.043831676 -0.043562375 0.15477781 0.056686524 0.11862689 -0.13228488 -0.054858435 -7.3088784e-05 0.111995615 -0.05660999 0.035026502 -0.15854745 -0.07230577 0.15856579 0.11051611 -0.07463267 -0.043280136 0.09593071 0.046315756 0.062322494 0.05466193 -0.095636055 -0.15961146 -0.01515211 -0.09082945 -0.031398408 0.087718576 0.112266965 0.063002236 -0.13335401 -0.16891581 0.015575262 -0.11251089 0.19241305 0.07225749 -0.08981005 0.109054856 -0.101949416 0.06804771 -0.027314872 -0.084890135 -0.029095981 -0.13480835 -0.19370012 0.025347728 -0.04712808 -0.13055196 -0.19908692 0.1118197 0.20032918 -0.19389576 -0.111070134 -0.081350006 0.040142033 -0.0027474028 -0.10687103 0.19802628 0.06996899 0.003962804 -0.15835807 -0.035882134 -0.16447392 -0.14615858 0.030109694 -0.1447122 -0.0021704568 0.12526539 -0.10951033 -0.13838162 0.036269974 -0.17242555 -0.18183792 -0.0720377 -0.09829005 -0.10165207 -0.035876393 -0.11146814 -0.11367135 -0.21080168 -0.05882088 0.16065177 -0.09623836 0.06280589 0.033452235 -0.1688321 -0.030863112 -0.14922862 0.11981321 0.09733246 -0.12730788 0.105449036 0.020909388 -0.20045611 -0.1425595 0.14448123 0.20897928 0.19076362 0.067946166 -0.13040641 -0.02924271
with -0.21310885 0.14209871 0.20589067 -0.04107055 0.09587866 -0.08185636 -0.06700728 -0.083121054 -0.012832161 0.03926363 0.115711056 -0.12755714 -0.04108353 0.07919157 0.04115422 -0.04367377 -0.006775071 0.069812685 0.16246285 0.19628465 0.15254402 -0.26633772 0.05302601 -0.039249394 -0.068552434 -0.16645727 -0.15372467 0.08828234 0.0881482 -0.22540407 -0.17533706 0.11468098 -0.18468736 0.12413457 0.08807832 -0.1064634 -0.18678439 -0.12776929 0.18457334 -0.15829217 0.20924537 0.054519445 -0.2418583 -0.034209706 0.18423375 -0.039876603 -0.1298864 0.00070697017 0.04419579 0.28200394 -0.03745991 -0.33665752 0.040607285 0.035035677 -0.26670235 0.11323551 0.13410205 0.35386536 0.3569134 -0.19305784 -0.1304442 -0.09706511 -0.03995396 -0.14116092 -0.19431774 -0.055740725 0.18893614 -0.39092034 -0.22458328 -0.017889895 -0.21187319 -0.18943404 -0.030761348 -0.24075913 -0.17127858 -0.21104202 -0.15722916 -0.016851226 0.015941074 -0.06050102 0.29628485 -0.019841136 0.34597558 0.02477187 -0.4343582 -0.101309925 -0.06669762 0.105495766 0.2771933 0.049778115 0.2805339 0.0013849365 0.08399099 0.11651262 0.34663817 0.24970788 0.11899638 0.2177268 -0.28056198 0.01105112
little -0.07784418 0.11108781 0.32116076 0.07785727 -0.050480228 0.13452834 0.12065139 0.07871007 -0.013971822 -0.0413969 -0.02175216 -0.30469784 -0.17791918 0.08719909 0.0065826094 0.007909835 -0.102773994 0.08239839 -0.15599729 0.16703896 -0.020633958 -0.18548292 -0.0022329788 0.21940023 -0.14448261 -0.14591874 0.034638073 -0.24976312 0.12985674 -0.29276422 -0.1686023 0.2941077 -0.41394582 0.054657467 0.14349222 -0.076162465 -0.20878473 -0.024579436 -0.11866653 -0.047164287 -0.099865206 0.38025853 0.034518342 -0.01270839 -0.12185011 0.029093578 0.06417603 0.02646626 -0.06517223 0.2682464 -0.055029158 -0.07077925 -0.09244855 0.3548868 -0.17714532 -0.025349885 -0.020239908 0.5066169 0.36970854 0.03743885 0.06474422 -0.057824235 -0.015672958 -0.22191676 -0.1737998 -0.04340271 0.2414943 -0.53691113 0.0029294705 0.08868551 -0.068917304 -0.0023609775 -0.23638895 -0.0793621 -0.119945005 0.02549203 -0.285983 0.041492954 -0.10282442 0.014495073 -0.021966675 0.15128466 0.13245885 -0.012336979 -0.39568794 0.14156178 -0.20979388 -0.013755875 0.27926144 -0.053257212 -0.030778991 0.16462463 0.03565381 0.20993684 0.2450714 0.09120713 0.13449082 0.15103574 -0.06793922 -0.016964052
mouse -0.14878197 -0.018036678 0.30851093 -0.1644539 0.14638287 0.08605762 0.067387946 0.115845256 0.007661615 -0.030061692 0.1610105 -0.15024574 0.087088704 -0.028003095 -0.10244298 0.015228165 0.065004595 -0.033257384 0.13502549 -0.011347455 0.11887506 -0.20624565 0.021407016 -0.108834185 0.04085407 -0.1142724 -0.13753654 -0.1384095 -0.12112739 0.099626206 -0.036255382 0.04198775 -0.26971784 0.17433675 -0.005850476 -0.22876574 -0.06604962 -0.10050987 -0.04741776 -0.16266102 -0.042205676 -0.1824105 -0.25442538 0.06464222 0.11573741 0.04202905 -0.038149714 0.06567464 -0.039369907 0.12096187 0.054890025 -0.21050788 0.025354847 0.04197794 -0.1672255 -0.10440417 0.07730736 0.21141973 0.25994045 0.12299048 0.04137492 -0.035494175 0.036402475 0.02064629 0.17789832 -0.106726274 0.1962691 -0.23807704 -0.088543065 -0.054424737 -0.16013475 -0.09473799 -0.01204847 -0.19637558 -0.12855528 -0.042155247 -0.088066466 0.073738635 0.05874608 0.09747629 0.18107365 -0.08093651 0.20980369 -0.029188963 -0.25334153 0.06963095 -0.007864785 -0.06756126 0.25508854 0.095777765 0.12427552 -0.15121727 0.2212506 -0.012332133 0.25999364 0.17806785 -0.043062855 0.11034089 -0.1240996 0.011203587
down -0.08802812 -0.043810505 0.014000582 0.08613548 0.12152833 -0.026772367 -0.09266192 -0.14154412 0.023301017 0.13273785 -0.032674335 -0.10407117 -0.103622906 0.14129312 0.16863182 -0.012177516 -0.05779031 0.055441227 0.21733561 0.21880957 -0.034535322 -0.1454135 -0.012366763 -0.045367517 0.04441131 -0.060005758 0.13479559 0.0116609335 0.096812375 -0.029351424 0.004706697 0.025322199 0.0050290436 0.06278731 0.00015348487 -0.021389483 -0.025379231 -0.0576173 0.08617118 0.12017528 0.15302289 0.10186998 -0.06050534 -0.17370251 -0.060054187 -0.022088137 -0.15963265 0.0053184982 0.07382937 0.0862228 0.052118585 -0.08314335 -0.07670939 0.050126977 -0.057814665 0.08687737 0.10447001 0.019733459 0.20122565 0.028306516 -0.07591891 -0.030264907 -0.15475951 -0.07995333 -0.16041441 0.18310902 -0.113734454 -0.07878353 -0.04890139 0.0344421 -0.032690186 -0.12139691 -0.032683387 -0.0061960835 -0.10839281 -0.13106829 -0.034703832 -0.08093381 -0.062164076 -0.058005277 -0.022410568 0.056018043 0.0101622725 0.19082075 -0.2017041 -0.10085374 -0.0699226 0.079132296 0.05322302 -0.07578312 0.1157101 0.059636503 -0.21465893 0.25115833 0.15507856 0.08481291 0.104722835 0.07043637 -0.14883527 -0.07446861
very -0.14434442 0.25696713 0.11775188 0.10530078 -0.0038271889 -0.12907504 -0.016789688 -0.05852136 0.18673675 0.18241669 0.09874115 -0.104531504 -0.18315652 0.10793917 0.09330534 -0.15520936 -0.122451365 0.08313551 0.16898376 0.2086934 0.07919622 -0.061195977 -0.13366029 -0.09733276 0.014652682 -0.01922593 0.07337688 -0.11975847 0.113363184 0.11757881 -0.023799242 0.103920326 -0.2037405 -0.008034357 0.13998415 0.08406909 -0.058442775 -0.20115034 0.15180653 -0.08934636 0.04292539 0.028596783 -0.057317216 -0.2063024 0.052880254 -0.21087289 -0.1729087 -0.14959344 0.113216735 0.029905595 -0.24652964 -0.06601202 -0.20263804 0.21597672 0.035277206 0.21442157 0.19017717 0.08321632 0.06948457 -0.1533544 -0.039231174 -0.09030063 -0.13871478 -0.017164668 -0.1111046 0.033757266 0.0859013 0.07572754 -0.19435115 0.13048296 0.024969632 -0.024182491 -0.08391894 -0.14520335 -0.075956665 -0.05628345 -0.11292672 -0.20027044 -0.04596898 -0.24781264 0.115694664 0.07829359 0.06938138 0.21311611 0.065245956 -0.091759935 -0.08520725 0.00030505576 0.06909598 -0.25544757 0.037108023 0.086139165 -0.024711134 0.16688038 0.12727627 0.05722089 0.057305735 0.056272164 -0.104284465 -0.1369099
this -0.085117735 -0.08748433 0.06310956 0.084122635 0.116919994 -0.10442984 -0.051191337 0.018945888 0.09417373 0.069370106 0.21610239 0.0116367405 -0.111443214 0.09644522 0.013754017 -0.14515248 -0.1956891 0.06672655 0.039242253 0.10892688 0.15143748 -0.03326619 -0.25753233 -0.03051281 0.032810114 -0.009867287 -0.12313198 0.048373397 0.037331007 -0.07448521 -0.19358107 -0.0682241 -0.046372727 0.17366442 0.05585173 -0.016686983 -0.05172096 -0.02313402 -0.10785938 0.13292925 0.118726835 -0.336321 -0.06264957 -0.1554984 -0.050062064 0.02751171 -0.053478662 -0.022412308 0.14703444 0.015836999 -0.13870366 -0.071726106 -0.061294194 0.017499678 -0.08938825 0.020193039 -0.01949478 0.165504 0.074084096 -0.13700539 -0.08577305 -0.09357585 -0.09814579 -0.0068748174 -0.055956077 0.038638715 0.07076312 -0.12252894 -0.09251726 0.13132848 -0.045745715 0.04238337 -0.05646646 -0.100460686 0.023900427 -0.059402734 -0.044298153 -0.07263168 -0.064690776 -0.03321831 0.09948295 0.089649536 0.074687056 0.1195589 -0.11206429 -0.1700128 -0.13855107 0.20391871 0.04607322 -0.1976548 -0.04454603 0.16596667 -0.06807636 0.0011422272 0.036793374 0.04503272 0.1304355 0.1838445 0.016551048 -0.08023284
not 0.046858672 0.35294417 -0.046307757 0.02421202 0.102669 0.052164543 -0.088301465 -0.22839901 0.13920133 0.20792384 0.0473536 -0.12395426 -0.038644735 0.132485 0.11761136 -0.16431668 -0.0728471 0.069631025 -0.0073356866 0.18730138 -0.022897981 -0.008330731 -0.0513409 -0.22887518 0.1251947 0.0059966524 0.08430649 -0.21326888 0.07387299 0.2316897 -0.06332212 -0.026190061 -0.017010195 -0.055397272 0.06694325 -0.06518095 0.040901992 -0.023966642 -0.15178736 -0.13786899 0.18986563 -0.13440923 -0.09782091 -0.08918117 0.002014763 0.022829026 -0.0054062773 -0.06684248 0.24071077 -0.04745855 0.037286352 -0.10318111 -0.16145721 0.11962031 0.08663102 0.040968895 -0.030835005 0.045167945 0.10219 -0.0574229 -0.02535297 -0.096329264 -0.044997595 0.0013609817 0.0023179457 0.10523497 0.06726509 0.04872378 -0.11558373 0.04213813 -0.08939547 0.038308743 -0.12413436 -0.04566001 -0.076291956 0.08592975 -0.15611848 0.031566232 0.059883893 -0.030442698 0.09733382 0.15692388 0.09566378 0.019839898 -0.054952692 -0.20643653 -0.0701725 0.039211255 -0.027152305 -0.1947065 0.054837395 -0.009402365 -0.023075206 0.08019051 0.047801327 -0.03286309 -0.022380939 0.13123894 -0.1616293 -0.20024948
so -0.061565198 0.1860149 -0.038024396 0.04419977 0.0541832 0.0013027306 -0.16437882 -0.12016444 0.024805823 0.09191311 -0.0023193078 -0.0015859572 -0.04696191 0.1483289 0.12036619 0.028349085 -0.036966547 0.013908791 0.09636029 0.082923494 0.03582043 -0.104934305 -0.1005865 -0.15296143 0.13557082 -0.016365096 0.06844328 -0.023473775 0.03933678 0.1720649 -0.090657786 -0.0026530973 0.06002338 0.05281724 0.05593404 0.0635947 -0.05367347 -0.13388824 -0.1422535 -0.005276466 0.27537194 -0.042200256 -0.034973796 -0.10102953 -0.0035321666 -0.10952432 -0.08166522 -0.023858184 0.29246655 -0.06421511 0.07571178 0.008370494 -0.2643756 0.06556898 -0.04482788 0.07963525 0.18899293 0.0393276 0.03901114 -0.010230796 -0.006926754 -0.0827921 -0.04871744 -0.109845586 -0.1865856 0.036335107 0.04313834 0.087367006 -0.08226768 0.082528494 -0.07642237 -0.06233637 -0.06519103 -0.111247875 -0.06598853 0.16926016 0.017474433 -0.046574675 -0.07682052 -0.118526496 0.031271473 0.059474476 0.08714381 0.13693435 0.113138996 -0.223158 -0.0013279265 0.06820989 0.0057291114 -0.14255536 0.04729807 0.008670725 -0.04796684 0.13258441 0.04422448 0.040235307 -0.003013249 0.036301244 -0.17449898 -0.1865384
out -0.07432423 -0.033804774 0.2454539 0.11124516 0.010526869 -0.049704466 0.004465986 -0.044112917 0.053403053 0.005732105 0.12955292 -0.19638516 -0.18179005 0.07860263 0.01141798 0.0014256955 -0.050461955 0.013897378 0.12765625 -0.002802545 0.0005191043 -0.15226245 -0.14641264 0.07212048 -0.0110315215 -0.09295903 -0.084081404 0.10975732 0.043719474 -0.020190964 -0.0797317 -0.04920446 -0.068824425 0.084180474 0.09120407 0.1422921 -0.0786584 -0.016489387 -0.0130657125 0.14160037 -0.032751225 -0.09068266 0.0027481285 -0.1123505 -0.072250135 -0.041139934 -0.04758129 0.038031116 0.02194415 0.012772007 -0.25900307 -0.021094445 -0.04302264 0.050877266 -0.00574629 -0.09454169 0.04300073 0.025482481 0.07414106 -0.09226206 -0.039254818 -0.010826268 0.030827736 -0.10077083 -0.052893296 -0.047337778 -0.05801315 -0.2274884 -0.011292564 -0.020649338 -0.012916112 -0.05878585 -0.03490801 0.06883339 0.013770614 -0.03759429 0.010922152 -0.103808366 -0.107311025 -0.056905538 0.046874065 0.045312256 -0.008167863 0.22814833 -0.006234878 -0.05595508 -0.011671221 0.042822428 0.080357075 -0.015370403 0.065983325 0.107588574 -0.028744271 -0.048592746 0.05395484 0.055966187 -0.019894496 0.010825278 -0.029246317 0.007267184
if 0.03815 -0.111503825 5.1010167e-05 -0.11533602 0.1390543 -0.18414104 -0.07887785 -0.21083854 0.07536728 -0.073321275 0.20021613 0.10506266 0.1657521 -0.033481695 -0.0020286317 -0.19780464 0.23473087 0.122264475 -0.14853738 0.14913927 0.12865129 0.13031808 -0.12542182 0.06514681 0.15063865 0.035100546 0.28669408 -0.06833737 -0.07872821 -0.02129186 -0.22094141 -0.29537952 0.15738013 0.14328071 -0.14141919 -0.009516449 0.15709639 -0.051211987 0.120069996 0.036418237 0.012555126 -0.2349313 -0.22885501 -0.0061490634 -0.03800139 0.08476786 -0.32353032 -0.18581624 0.17769752 -0.09751463 0.1405714 0.109627664 -0.15057255 -0.06906912 0.18884878 -0.21469152 -0.14431182 0.049026176 -0.04731739 -0.22175781 0.09266832 -0.25856185 -0.08098375 -0.11990322 -0.06855666 0.18904445 -0.14815538 0.293643 -0.024839792 -0.09372382 0.13575506 0.14538771 0.0035543987 -0.1191654 0.025877548 0.17841871 -0.33688515 -0.32389364 -0.043618236 0.24785219 0.16136384 -0.09968576 0.071696684 -0.06793381 0.2611241 -0.30584598 -0.15500636 0.19601141 -0.05360281 -0.15867808 -0.039991923 -0.045149695 -0.3593545 0.040531144 -0.06288827 -0.081386656 0.24113984 0.12568198 -0.02146375 -0.12838358
is -0.16521183 -0.11411225 0.15255941 0.030073246 0.04172352 0.046993867 -0.03118884 -0.048746817 -0.015466158 0.095165744 0.0843341 -0.038761847 -0.0032723772 -0.022458343 0.027144758 -0.008354788 0.06968035 -0.059792396 0.06545135 0.077948995 0.11271646 -0.17635871 0.010759895 0.05659543 -0.0031131904 -0.14138015 -0.10182942 0.13526823 -0.023513155 -0.109195724 -0.1273127 -0.027231779 -0.17058685 0.14332555 -0.01242332 -0.29903796 -0.07360802 -0.09373758 0.051628295 -0.17367698 0.10806211 -0.12526311 -0.06164523 0.080657646 0.090722494 0.042304628 -0.1993478 -0.0017110662 -0.09052385 0.14625424 -0.054294933 -0.075352326 -0.0014686418 0.113070674 -0.19458307 0.06407367 -0.003437461 0.17078027 0.18697135 -0.033368457 0.017614257 -0.09358584 -0.026357511 -0.0036217803 -0.07581738 -0.056493863 0.056612123 -0.007870156 -0.15245321 -0.15286562 -0.1713173 -0.102350615 0.0108321775 -0.08590408 -0.13712466 -0.071911216 -0.07840758 -0.022103027 0.027128149 -0.0070227007 0.07945487 0.04423327 0.04081954 -0.07551759 -0.2355184 -0.07205516 -0.12400174 0.04807078 0.20745867 0.04380598 0.11048356 0.012937625 -0.12150264 0.03494991 0.14075772 0.038026944 0.13257852 0.033668883 -0.16768825 -0.07753785
at -0.20774774 0.11373532 0.07532029 -0.031161606 0.16333619 -0.08516043 -0.016557302 0.051703725 0.052820012 0.026885653 0.020530252 0.038054146 -0.11823743 0.13125518 0.10149205 0.055515833 -0.16996732 0.05547688 0.25850567 0.10231028 0.09640706 -0.22640552 -0.122990966 -0.15275332 0.060897905 -0.13838053 -0.19308895 0.17361853 0.082945704 0.22091931 -0.0032918048 0.037851114 -0.13629024 0.1439847 0.1386372 0.017426075 -0.10020216 -0.14918174 0.010027186 0.12072583 0.03437163 -0.070904344 -0.18149261 -0.15829116 -0.16691622 -0.028536212 -0.107183345 -0.015561879 0.13645242 0.15033056 -0.04444241 -0.1775148 -0.11900641 0.020638965 -0.0928938 0.060496625 0.11700015 0.114231914 0.067330025 -0.008599179 -0.05369224 -0.031992767 -0.18527956 0.041217968 -0.14559074 0.11120884 0.08231233 -0.15582825 -0.13608062 0.07213106 -0.04365631 -0.046563983 -0.10761865 -0.13154973 -0.11251906 -0.10949531 -0.0466942 0.006931442 -0.04084942 -0.07396248 0.11779655 0.028422246 -0.0050736153 0.1759346 -0.14764585 -0.09876343 -0.11871997 0.018300317 0.1578272 -0.039171197 0.04739036 -0.056662545 0.026203226 0.007943787 0.17014948 0.077338435 0.060917277 0.0960879 -0.074280806 0.031772114
t -0.14734764 -0.16969492 -0.06556159 -0.2535663 0.0198374 -0.22078289 -0.12081798 -0.20542525 0.06342663 0.11748375 0.28061545 -0.05637643 -0.005687087 -0.10973842 0.10069283 -0.19094208 0.08544141 0.14863978 0.020129688 0.08842283 0.115264505 -0.029962288 -0.24420883 -0.020734034 0.18184446 -0.11079546 0.08800801 0.21313041 0.09456479 -0.18810573 -0.31792018 -0.11910163 0.026077384 0.19004853 -0.068156384 -0.21032703 0.022385359 -0.065671846 0.13061115 -0.10556081 0.07779333 -0.012555879 -0.10301232 -0.109964386 0.061395105 -0.1392347 -0.21593449 -0.1625017 0.24604714 -0.0047672265 -0.09508622 -0.04455188 -0.17497706 0.066292465 -0.0797055 -0.06512688 0.09657028 0.0010217144 0.17344707 -0.20901749 -0.05037425 -0.32419348 -0.083312795 0.007437572 -0.09561265 0.079257704 -0.07658882 0.017562343 -0.14249887 -0.019287644 -0.10337968 -0.04309511 -0.036017817 0.028464023 0.016008459 0.09024098 -0.32522967 -0.2927803 0.058285862 0.16210698 0.18478103 0.10159342 0.02020408 0.016395459 0.014710661 -0.27685535 -0.08935656 0.24751654 -0.0048438706 -0.07818657 0.18354207 0.08564324 -0.28806272 0.08741395 0.08842909 -0.04269296 0.23042177 0.17121476 -0.13895859 -0.16803625
s -0.060299277 -0.063240044 0.16817392 -0.018305628 0.14937559 0.0030692152 -0.17170389 -0.1836467 -0.031223925 0.23953824 0.03328312 0.020034656 0.003586325 -0.015093271 0.06407849 -0.06901679 0.011280789 0.083102375 0.15162607 0.08956704 0.057020105 -0.17590567 -0.09083993 -0.032322016 0.13189153 -0.12759396 0.02568409 0.051978376 0.070304364 0.021924416 -0.012783964 0.03431075 -0.073429845 0.06988216 0.009029782 -0.10459422 -0.15795326 -0.09992798 0.084271066 -0.19204709 0.26056564 0.12022176 -0.058836337 0.052826207 0.11178728 0.016782835 -0.14128163 -0.007084225 0.154311 0.1102774 0.05844568 -0.04699804 -0.16206957 0.11456236 -0.06877601 0.24421912 0.047488764 0.08310647 0.27076483 -0.08413604 -0.012337019 -0.10780146 -0.048268758 -0.104391135 -0.019898476 0.062228702 0.041475754 -0.1789881 -0.15795575 -0.10171199 -0.13386151 -0.054254245 0.029473044 -0.08757053 0.008872752 -0.06764793 -0.041591596 -0.08343023 0.007974955 0.008946378 -0.016264575 0.07533397 0.016896997 -0.011994636 -0.08798379 -0.044373672 -0.077363215 0.07327233 0.08993418 -0.092941985 0.1712107 -0.026497364 -0.24114448 0.0063061076 0.117845654 0.08419621 0.024401706 0.08885353 -0.16081993 -0.20972082
ll -0.033760563 -0.31881157 0.0037300494 0.031371694 0.032747228 -0.20594218 -0.05297923 -0.20422979 0.11290506 0.043830317 0.18891267 0.05568439 0.056445487 -0.047242448 -0.014194675 -0.12525284 0.073019564 0.18704551 -0.08280311 0.029974686 0.097360775 0.07634557 -0.21762377 0.028747756 0.27631822 -0.06318461 0.09195067 0.12161431 0.009193651 0.033233225 -0.20965056 -0.10068437 0.11740606 0.19495833 -0.0732412 -0.003961298 -0.013218676 -0.039887123 0.19704773 0.043773036 -0.039316185 -0.051232688 -0.19031024 0.011904966 -0.019532723 0.008673443 -0.19849804 -0.16612698 0.26608178 0.12792283 -0.09222097 0.09300005 -0.16424645 0.012229794 0.029815365 -0.15820411 -0.115454786 -0.026248341 -0.024220185 -0.21242471 -0.025785975 -0.27026206 -0.07511821 -0.13041694 0.064692095 0.30536804 -0.04654512 0.19189733 -0.0069905617 -0.15872835 0.002230005 -0.062522344 0.031887315 -0.067065306 0.0911677 0.1863137 -0.23778985 -0.30232313 -0.13109386 0.21313252 0.109551944 -0.04714584 0.10917083 -0.053756572 -0.0028992388 -0.15056464 -0.11413786 0.12393741 -0.045477066 -0.13341685 0.035883583 -0.020130765 -0.38414747 0.031327244 0.0029587797 0.0485618 0.23792724 0.06873585 -0.043097604 -0.1965008
how -0.18407932 -0.005872137 -0.022490233 0.09117284 0.14099745 -0.091047965 -0.0588493 -0.0885293 0.0029852241 0.19022502 0.03814191 0.028479766 0.033753153 0.031537645 0.07792735 -0.103963405 0.02609803 0.08387473 0.15137856 0.0030265455 0.107521854 -0.18071084 -0.05052306 -0.13618535 0.16944447 -0.17155257 -0.19226225 0.011004641 0.037958372 0.019635081 -0.033398528 -0.023337413 -0.120267935 0.053302236 0.05663027 -0.3546243 -0.17692304 -0.10824622 0.11172506 -0.07924729 0.17596129 -0.09078862 -0.09239405 -0.04060801 0.07849737 0.00938024 -0.24463795 -0.1006228 0.15313531 0.1571148 -0.043624613 -0.12934704 -0.19318435 0.08734809 -0.10581951 0.03613216 0.02113556 0.09011946 0.14685822 -0.037155684 -0.09105469 -0.10152017 -0.09852908 0.02863438 -0.080129646 0.17754279 0.035224553 0.034725945 -0.20322002 -0.08970524 -0.11427457 -0.15015656 -0.05721195 -0.07469991 -0.18905039 -0.1266208 -0.07114213 -0.14232525 -0.018929992 -0.03283693 0.1258205 -0.015421907 0.11440287 0.028373279 -0.03656033 -0.22101931 -0.18466957 0.14057374 0.06880427 -0.08662233 0.25607917 -0.0022460073 -0.14770001 0.07553177 0.13231672 0.115174256 0.17227267 0.18341981 -0.10809096 -0.17266831
they -0.13342835 -0.06506853 -0.07237958 0.16887595 0.028052628 -0.10629257 -0.09461771 -0.06218856 0.19064341 0.015215301 0.06462504 -0.08859278 -0.16943426 0.12258998 0.18739164 -0.20450181 0.0029160266 0.13991097 0.15728241 0.24477917 0.139269 -0.20417857 -0.09847076 -0.12321819 0.1353859 -0.09028491 0.14608513 0.123471946 0.2521355 -0.076513566 -0.07048557 0.21874028 -0.17231974 0.034943238 0.12781751 -0.014042434 -0.13755685 -0.10736319 0.25325105 0.008590444 0.283817 -0.13770781 -0.25825348 -0.2344609 -0.107026614 -0.036022592 -0.031342253 -0.06356087 0.05720116 -0.0075553893 0.06291921 -0.012474377 -0.02120084 0.11542031 -0.09450407 0.17446074 0.08897242 0.08920973 0.02302692 -0.27705184 -0.16938873 -0.18214186 -0.12012018 -0.057267506 -0.2718537 0.045276556 -0.01969637 -0.050082587 -0.092435 -0.05587281 0.029972585 -0.040611107 0.007954521 -0.24158752 -0.033430535 0.007719358 -0.016017113 -0.103066295 -0.15241142 -0.08300559 0.111452244 0.013556111 0.07949751 0.10217957 0.084679335 -0.027992278 -0.09141653 0.01051661 0.06923744 -0.04093789 -0.038650595 0.0325923 -0.14263657 0.10546059 0.13962345 0.24567054 0.23906255 0.115916826 -0.039122064 -0.096900694
about -0.101439014 0.12902781 0.044819172 -0.04626626 0.124671645 -0.09616851 -0.080019265 -0.071268916 0.15736218 0.18344474 0.11271041 0.0030071838 -0.08111922 0.083518185 0.10470565 -0.06456704 -0.11890872 0.11481368 0.016085332 0.04644655 0.15422906 -0.06501406 -0.0076782573 -0.205641 -0.0075453296 -0.0492464 -0.121958934 0.004102921 0.04571681 -0.05040541 -0.022222878 0.005501349 -0.06424409 0.05203325 0.10421397 -0.13945743 -0.023727257 -0.13038753 -0.021083107 -0.030753925 0.1483607 -0.14607456 -0.113412544 -0.11676868 0.06595662 -0.16620886 -0.06555757 -0.16501956 0.08877463 -0.08562951 -0.16887842 -0.1481918 -0.1044766 0.016362237 -0.09739138 -0.0048322817 0.16920882 0.1667983 0.014243309 -0.09510998 -0.07191143 -0.16802992 -0.08219532 -0.014837068 -0.03810153 -0.109287426 0.03267599 -0.053601734 -0.10286533 0.13054423 -0.09985064 -0.10914953 -0.10830783 -0.03799356 -0.077496186 -0.115854286 -0.16010787 -0.17037137 -0.04988116 -0.09717127 0.13221368 0.051688347 -0.002157085 0.09770004 -0.043117225 -0.06281037 -0.13069804 0.16149643 0.16074295 -0.063489765 0.060201637 0.07132412 -0.058871116 0.027996771 0.17810234 0.10177611 0.043036416 0.079138495 -0.14911194 -0.043091282
herself 0.017651271 0.06769276 -0.08970338 0.026389182 -0.10253423 0.08960099 0.025146 -0.17838322 0.043148607 0.16282822 -0.007760808 -0.07343317 -0.085012734 0.14548281 0.002678474 -0.017137622 -0.079646915 -0.049353663 0.104709074 0.23341842 -0.059608147 0.039912127 -0.011964829 0.072246894 0.100408636 0.01238729 -0.050890386 -0.024296215 0.16790578 0.004753256 0.016237585 0.16037905 -0.14207062 -0.15082295 0.06783425 0.02087224 0.11882271 -0.07624139 0.06645275 3.19283e-05 0.2650209 0.07564059 0.012682032 0.016442534 0.12524185 -0.18282364 0.12095646 0.1194531 0.05926709 -0.016662324 -0.17399992 0.018662512 -0.051157247 0.104207605 0.04548709 -0.004555907 -0.00557226 0.014222521 0.08400165 0.02125959 -0.10966804 -0.048038274 -0.07687576 -0.22550905 -0.013775934 -0.074573815 0.010412658 -0.010301525 0.030708753 -0.0109317275 0.027881404 -0.034220215 0.00030816795 -0.06842186 -0.022740038 0.014189345 -0.17814727 0.009737165 -0.08757987 -0.2014539 0.07818871 0.056667574 -0.093123406 0.23350814 -0.05610107 -0.2589448 -0.05775019 0.22085841 -0.077287704 -0.13026673 0.01681035 0.056017883 0.02394048 -0.15448065 -0.03836198 -0.14809108 0.038705 -0.035728782 -0.010667325 -0.273308
me -0.04638197 -0.11751576 0.082235985 0.096882924 0.030778402 -0.124484375 -0.12534174 -0.15033644 0.10062924 -0.06597708 0.22615324 -0.020493392 -0.13270514 0.15074429 0.0829681 -0.13797583 0.03016765 0.16130687 -0.0036597583 0.19829336 0.2111648 -0.108118385 -0.036132537 -0.10989948 0.11682879 -0.12614848 0.050254993 0.22035396 0.17507751 -0.21088873 -0.17439571 0.10270191 -0.11794041 0.08184414 0.045617282 -0.16856004 -0.024392653 -0.08159848 0.19746381 -0.029401224 -0.0018370135 -0.21060927 -0.19650474 -0.079386555 0.13524948 -0.09509741 0.0020503907 -0.11798939 0.1167585 0.15254174 0.041452855 -0.10670519 -0.056347046 0.18432324 -0.14735097 0.030148232 0.046204917 0.022748273 0.05676098 -0.16894104 -0.04650549 -0.13489032 -0.045893002 -0.07449992 -0.12671714 -0.18121903 0.10452882 0.034995537 -0.08975737 -0.026744733 -0.10854822 -0.11814913 -0.004015423 -0.14307888 -0.061604254 0.11364015 -0.10560592 -0.2024869 -0.12038472 0.077136494 0.2366448 0.038733304 0.16750458 0.10081367 0.077653095 -0.15600055 -0.14665052 0.16103181 0.060885817 -0.08239778 0.0017439637 0.13121553 -0.13825575 0.09327686 0.12439879 0.1479617 0.120870315 0.13866481 -0.07602785 -0.09308331
up -0.17168896 0.039435808 -0.047649723 0.028815193 0.011465014 0.011660268 -0.108842276 -0.037559938 -0.050375 0.16342449 0.05847342 -0.04261538 -0.06353547 0.05726442 0.11201768 -0.025566923 -0.10764072 0.023195224 0.09929301 -0.01013393 0.085132346 -0.11336758 -0.059422314 0.047162995 0.10369261 -0.004035329 0.052760728 0.11311922 0.06384416 -0.06753999 0.032654658 -0.028834881 -0.12652884 0.016039403 0.019548282 -0.10328874 -0.18530694 -0.06940812 -0.12422008 0.045868732 0.027780652 0.114615604 -0.0074269325 -0.12301131 -0.024142355 0.029488882 -0.20887797 -0.12756972 0.04046362 0.100232184 -0.10415304 -0.13547552 -0.076043464 0.015866494 -0.06778738 0.043973044 0.011436341 0.100765176 0.08982149 -0.044463675 -0.04105073 0.038696624 -0.17748694 -0.02523057 -0.06468919 0.04122811 -0.016158935 -0.05188894 -0.028233508 0.004677466 -0.07973515 -0.019216703 -0.04252446 -0.066948205 -0.08666822 -0.12377266 -0.016203048 -0.0449008 -0.025020443 -0.12711747 0.018217828 0.08822991 -0.020110242 0.06733597 -0.025814975 -0.03673698 -0.12574321 0.10916029 0.032923967 -0.114162534 0.0985591 0.041726604 -0.14869308 0.12437866 0.14037456 0.17790829 0.07088521 0.1079571 -0.12686451 -0.048325952
what -0.055062465 -0.07925691 0.024719913 0.084316924 0.07597349 -0.04268086 0.0057116286 -0.01867544 0.062096637 0.045758855 0.071312346 -0.11827845 -0.0013270925 0.087753385 0.030401956 -0.08478755 0.006328776 0.124022745 -0.030169433 0.06469035 0.046478983 0.0031744526 -0.07877573 0.004209085 0.030132297 -0.1523934 0.071571864 0.014261693 0.029432064 0.03635177 -0.12297189 0.0149663435 -0.10024126 0.23050359 0.015443157 -0.19015756 0.057637192 -0.12992512 0.13210665 -0.010263273 0.020299815 -0.026068194 -0.15958439 -0.025024883 0.01836716 -0.10654164 -0.15494023 -0.115164086 0.08874821 0.07708398 -0.042901274 -0.06817724 -0.066291645 0.072884224 -0.03783717 -0.01484775 0.11027333 0.07596055 0.07353647 -0.10786918 -0.0045475387 -0.16168018 -0.03624754 -0.06934156 -0.05850458 0.08550787 0.10452015 -0.05434093 -0.063545235 0.019676112 0.032392867 -0.004386089 -0.0009935135 -0.124619305 -0.047712315 0.1611931 -0.123769164 -0.18058373 -0.06931751 0.08257406 0.11057687 -0.04555661 0.1583318 -0.0067069163 -0.15596949 -0.08937787 -0.13287424 0.037182387 0.12520443 -0.02260593 -0.008914922 0.0990392 -0.12861946 0.02179616 0.07664527 0.076338425 0.086798035 0.07055186 -0.014577524 -0.1183379
way -0.11576609 -0.07901945 0.1332029 0.07502613 0.048900574 -0.12245342 0.019738553 0.011829784 0.020351965 -0.13783017 0.18252744 -0.11893332 -0.0047606453 0.042961303 0.055086788 -0.027822955 0.003971125 -0.022675889 0.028286438 -0.099248014 0.06286549 -0.15332791 -0.016456593 0.028989986 -0.12420576 -0.06168092 -0.13095206 -0.084469825 -0.01580875 -0.06242057 -0.17514071 -0.10442449 -0.056522984 0.23687422 0.028858675 0.030136665 -0.037665796 0.039279435 -0.09731854 0.14785227 -0.07749377 -0.09391451 -0.11149664 -0.017427202 -0.01755129 0.023204613 -0.05826431 0.04952173 -0.013799574 0.11627851 -0.082380995 -0.10251517 0.049461104 -0.002392194 -0.1494409 -0.17940523 -0.022811893 0.093475215 0.06582299 -0.13927247 0.029140228 -0.1622409 -0.00984633 -0.0023152502 0.005108265 -0.055260018 0.17118827 -0.13346808 -0.10016424 -0.012160064 -0.015777553 -0.15411118 0.038787883 -0.11373391 -0.04394709 -0.054941922 -0.009504754 -0.072551 0.037464477 -0.02622003 0.099664494 0.04820231 0.056320664 -0.058726933 -0.045966096 -0.088405766 -0.03040772 0.06597269 0.098944105 -0.0024390598 0.085015275 0.07103802 -0.002921184 0.037523873 0.09739135 0.057152983 0.020026695 0.094505966 -0.04278612 0.016044972
when -0.08713267 -0.013587759 -0.007387118 -0.057125166 0.112199016 0.06511354 -0.07830743 -0.1753758 0.0045355135 0.054718077 0.105136044 -0.060074553 -0.039590135 -0.022637527 -0.011005237 -0.06334858 -0.054121207 -0.021157667 0.075225815 0.019417072 0.07294204 -0.19710897 -0.0407874 -0.12989932 0.087756135 -0.17357585 -0.11344795 -0.040336315 -0.02846846 0.14272068 -0.0155112725 0.10352679 -0.15955654 0.14553677 -0.013032662 -0.07868597 -0.21231663 0.016741125 -0.043825552 -0.0012958089 0.1910589 -0.013488856 -0.11426823 -0.041726135 -0.010694113 0.02289725 -0.1337681 0.030029416 0.13888897 0.12027531 -0.02106892 -0.09117765 -0.15107219 0.024553612 -0.060288616 0.047898322 0.077926666 0.11102335 0.12103373 -0.085324615 0.06810272 -0.17119354 0.01206602 0.011161589 -0.102556996 0.105788395 0.08279988 -0.121530674 -0.14509319 -0.100770794 -0.09198777 -0.1603587 -0.07738172 -0.19029999 -0.11338475 -0.016786763 -0.10036668 -0.02559247 -0.033108577 -0.021431206 0.10897698 0.027002122 0.06991722 -0.087543234 -0.011929005 -0.13868806 -0.07771634 0.09070756 0.14471257 -0.10056746 0.1813601 -0.13395406 -0.028716302 0.060135763 0.13132341 0.026283696 0.039279908 0.14651641 -0.23558931 -0.09108494
like -0.033439532 -0.06675411 0.04958984 -0.056495555 -0.04996665 -0.06168396 -0.046412192 0.024218893 0.06946113 0.017167138 0.11182436 -0.13630022 0.0013131009 0.072171964 0.0975907 0.011643206 -0.015968181 0.07514692 -0.0024514843 0.11920983 0.13695614 -0.0020363876 -0.124780014 0.080444925 -0.041588068 0.018839587 -0.03245365 -0.07775384 0.017723223 -0.11520607 -0.16406327 0.04039182 -0.1262055 0.058996588 -0.017640494 -0.022698913 -0.07237878 -0.08994609 0.03507878 -0.10173124 -0.0031357561 0.120985635 -0.16205278 -0.025030367 0.02205086 -0.09614394 -0.047125224 -0.03183786 0.044306967 -0.024546064 -0.034167316 -0.020938996 -0.00026668503 0.06628616 0.028019559 -0.078864366 0.08098441 0.04865822 0.081899256 -0.045175828 -0.11312044 -0.18429177 -0.13977322 -0.024518931 -0.02166976 -0.10038302 0.046223078 0.020703178 -0.09726838 0.05552784 -0.008400211 -0.11057093 -0.045911726 -0.08215697 -0.1308918 -0.03869577 -0.0928427 -0.091138355 -0.01246175 -0.017970482 0.034539063 -0.028531564 -0.0084554115 0.123263046 -0.09239475 -0.05005486 -0.19371891 0.030410685 0.14464594 -0.04505549 0.04019477 0.03173384 -0.0027294573 -0.010907994 0.13449366 0.073838666 0.13381074 0.10033159 -0.08370535 -0.10245259
one 0.052282326 0.050254628 0.15053938 0.18433271 -0.05698075 -0.070176475 0.04407397 0.07050669 0.14043637 0.068976216 -0.06708727 -0.14525327 -0.095817484 0.26804098 0.08228425 -0.04176507 -0.18234952 0.0676245 0.14446108 0.07477107 0.0057970686 -0.024831261 -0.08660554 -0.02470608 0.026886363 -0.02001301 -0.03300192 0.032498427 0.18452601 -0.022179987 -0.123246126 0.013262063 -0.18147732 0.014197001 0.10493699 0.0068831686 -0.021467168 -0.051999323 -0.04993946 0.059212882 0.0015978443 -0.11378859 -0.04484468 -0.15124089 -0.010665309 -0.044182017 -0.023897551 0.067669384 -0.011436041 0.11692584 -0.31865364 -0.10814738 0.040721793 0.12537403 -0.041136313 -0.03398224 -0.038849164 0.06131364 -0.035901062 -0.020674292 -0.20492011 0.032539714 -0.08641943 -0.027505567 -0.027849792 -0.011189178 0.13190678 -0.1236153 -0.034194466 0.12431694 0.015557684 0.005919586 -0.12134935 -0.11812822 -0.011302355 0.07413284 -0.040664755 -0.05666229 -0.0647333 -0.19735216 0.09189925 0.031120528 0.122110344 0.258996 -0.0802919 -0.08492398 -0.09761447 -0.011328178 0.06258357 -0.013911251 -0.042098522 0.14152618 0.05147725 -0.098193645 0.11379296 0.06808989 0.029723613 0.03192063 -0.011658533 -0.07603669
do -0.084594525 0.03151847 0.04621659 0.060046274 0.06562336 -0.05997047 -0.0739831 -0.10404391 0.100450315 0.007784192 0.028756274 0.05955281 0.00043625088 0.13625944 0.045782115 -0.11642309 -0.03604785 0.20017754 -0.08281276 0.2194177 0.11658627 0.09458481 -0.14994448 0.08487173 0.08822191 -0.10733096 -0.01704604 0.2356504 0.020924773 -0.05650019 -0.126138 0.022528652 0.02336211 0.097500026 -0.0016773663 -0.16198039 0.058523852 -0.09438341 0.16109915 -0.022931892 0.05654471 -0.12627088 -0.16698067 -0.06271526 0.22723594 -0.12563793 -0.029734079 -0.08771892 0.05525204 0.051320624 -0.10421947 -0.11253409 -0.03514469 -0.004193077 -0.00769397 0.04779058 0.11180324 0.023175564 0.029781643 -0.02332917 -0.039724644 -0.11720767 0.0038748255 -0.14606608 -0.06510321 -0.033938576 0.08470082 0.049256757 -0.007773322 0.040116146 -0.027233757 -0.09036035 -0.07794977 -0.051278684 -0.03986378 -0.09239609 -0.0244777 -0.21328107 -0.072069064 -0.05229589 0.19168915 -0.0009059339 0.09666987 0.03339626 -0.042806346 -0.09310882 -0.07057993 0.1646627 -0.06618254 -0.10530282 0.040711492 0.1776856 -0.077003926 0.046181757 -0.006654619 0.026461873 0.08076684 -0.026912756 -0.062167015 -0.07879829
no 0.04255218 -0.07212993 0.06031526 0.109305754 0.084778585 -0.09092138 -0.16107762 -0.120774314 0.17713791 0.15148506 0.049879704 -0.110199586 -0.04687755 0.19370715 0.018295621 -0.032311864 -0.112903185 0.025954183 0.15196067 0.21643409 0.06282836 0.0007065007 -0.13474561 -0.0075909114 0.03882425 0.058527842 -0.042325977 0.21973982 0.09683468 0.2008714 -0.12812515 -0.01775584 0.027127508 0.04460197 0.17454815 0.035066456 -0.05158674 -0.1915197 0.1748122 -0.10644016 0.2119453 0.14543024 -0.17366828 -0.10779213 -0.033300906 -0.13570678 0.07246836 -0.005537726 0.086906485 -0.05177798 -0.17180823 -0.027492438 -0.00947712 0.12024638 0.06662079 0.13603981 0.19258428 -0.13604528 -0.03930861 0.00980376 -0.11107393 0.022001112 -0.18022895 -0.1683941 0.030735686 0.10477317 0.046096247 -0.013784154 -0.08469821 0.093637586 0.06176 -0.028770428 -0.049026683 -0.039370097 -0.035108 0.19842488 -0.17743976 -0.14838006 -0.14477457 -0.05719569 0.098625384 0.058982637 -0.023590904 0.19701377 0.016653463 -0.04549818 0.026753914 0.071506456 0.004425258 -0.03972049 -0.03378017 0.012632797 -0.06098186 -0.1258393 0.049581423 0.015124948 0.08951462 0.018151686 -0.06928366 -0.11330528
oh -0.15283477 -0.042133 0.09549677 0.0105890995 0.063495584 -0.032193843 -0.01605061 -0.048135955 0.0794141 0.10381819 0.06169343 -0.07806422 -0.009037247 0.026373046 -0.011227452 -0.058114495 -0.1048292 0.1521797 0.0043883715 0.027389353 0.06440382 0.003360223 -0.06532343 0.020371377 0.16054581 -0.071251884 -0.038213924 0.044896696 0.06573362 -0.108006805 -0.15006135 0.17359555 -0.10309493 0.15042754 0.004813639 -0.18115748 -0.008851779 -0.086353324 0.08238968 0.1396748 -0.08372429 -0.08347145 -0.05856002 -0.07401494 -0.026691033 0.0012450041 -0.21085241 -0.07099825 0.012445431 0.14761922 -0.023847157 -0.07760369 -0.05165948 0.08376411 -0.07117375 -0.097282425 0.00051838654 0.121264316 0.11326525 -0.15734641 0.04294803 -0.192703 -0.08214291 -0.08555741 -0.0053969757 -0.014802092 0.063233405 -0.02980615 -0.01427587 -0.047628876 -0.02350164 -0.12363282 -0.09388711 -0.04844352 -0.10766903 -0.096954696 -0.19981407 -0.14984512 -0.04483836 0.00037053658 0.12740302 0.0784846 0.05559632 -0.046125032 -0.0024064481 -0.087595835 -0.18757117 0.2151841 0.09450538 0.004494013 0.12792231 0.07585359 -0.20436934 0.12595676 0.05934033 0.11429118 0.17173745 0.05185498 -0.106103934 -0.0016946484
went -0.054727796 -0.019889792 -0.0720604 0.14267106 0.07976729 0.09664811 -0.07090025 -0.068851754 0.07193163 0.044701245 -0.079918146 0.08595639 -0.036831 0.04702547 0.058336172 0.06856885 -0.0019104682 0.0399777 0.025000097 0.1499352 -0.04138012 0.05162708 0.026828611 0.07265728 0.20356105 0.01085767 0.32189468 -0.10869159 0.057948116 0.20280781 0.15853962 -0.065413006 0.038982946 -0.15150133 -0.018955903 0.18689689 -0.041993793 -0.053991277 -0.21415704 0.22014314 0.28099883 0.13512616 0.05302804 0.030299373 -0.25237143 -0.16213566 0.13312061 -0.113815695 0.21720186 -0.03339248 0.086643584 0.037910722 -0.07677066 0.008115292 0.19324583 -0.039297476 0.019320555 0.09598117 0.00641048 -0.08738472 -0.09379101 0.08188628 -0.10946278 -0.03250054 -0.028980426 0.2081589 0.04966977 0.16224006 -0.008013343 0.050816722 0.10497889 0.024581332 -0.03637133 0.053681456 -0.0022759936 0.039974827 0.008972041 0.019497804 -0.088183604 -0.1542004 -0.13062143 0.08023427 -0.09098778 0.032930177 0.047972254 -0.19741161 0.051610626 0.1680156 -0.08768677 -0.17255275 -0.0081860665 0.08048811 -0.02482394 -0.014114627 -0.002948581 -0.06079529 -0.05256486 0.041681822 0.040961627 -0.17140545
thought 0.017526919 0.012680037 0.076352365 0.06615795 0.040410887 0.004171214 -0.12932003 -0.15985402 0.029823996 0.10969581 -0.026689155 -0.11011061 0.032733746 0.030810554 0.13013627 -0.055700492 0.061868943 0.11885253 0.03820302 0.11572695 -0.027439587 0.04481337 -0.11107762 0.13276279 0.29373616 0.0056396564 0.21661472 0.02933896 0.07387814 0.14339544 0.0445769 -0.08700679 0.027189761 0.029242717 -0.0064247507 0.08129016 -0.06980888 -0.13694419 -0.042685665 -0.018047607 0.2686164 0.02949355 -0.0100279255 -0.0004521482 0.14044073 0.0034634527 0.005012679 0.054154463 0.14508688 0.0100919595 0.10483905 0.007869485 -0.14816232 0.025723739 0.09219559 -0.034878872 0.10148186 -0.044724166 0.11273017 -0.1121173 -0.003799793 -0.11656828 -0.018291974 -0.052750617 0.021643827 0.13678901 -0.0092007285 0.0097862715 -0.025353327 -0.07606815 -0.036076993 0.02775447 9.310545e-05 0.013189242 -0.03375578 0.0046542063 0.09590772 -0.0050332593 0.015747076 -0.13961922 0.054906033 -0.046701234 0.1573144 0.05310266 0.027249685 -0.19073984 0.07322616 0.06949513 -0.006467267 -0.021893678 0.042671856 0.08299352 -0.058388237 0.0064360183 0.052718557 0.04328359 0.0037957765 0.065576926 -0.031676583 -0.21494095
again -0.09036264 0.032103002 -0.024993189 0.098118156 0.013363084 -0.0049571833 -0.05041716 -0.10654324 0.05436265 0.14270598 0.01968955 -0.017510833 0.071306266 0.09694766 0.12952945 -0.0020562995 -0.09862963 0.044153348 0.124704316 0.11252876 0.06311544 -0.08795811 0.023212202 -0.06360441 0.03956477 -0.022849431 0.039979845 -0.04462411 0.05983499 -0.007035732 0.032244403 -0.043968797 -0.05712063 0.010993455 0.043897245 -0.020691749 -0.07076815 -0.010070667 -0.015830515 0.14114639 0.15741782 0.116148144 -0.0329705 -0.02525076 -0.111003935 -0.008882119 -0.032611188 0.034546886 0.052782137 0.025744261 -0.04106053 -0.09345496 -0.05889893 0.072471134 -0.04861233 0.039202355 0.0071945237 0.051307723 0.06479142 -0.02687969 -0.033969373 -0.10013387 -0.1124448 -0.010878511 -0.15820636 0.101362236 0.03226183 0.033292912 -0.06858655 -0.010320504 -0.0825573 -0.07485878 -0.031860445 -0.052541766 -0.08553003 0.08902854 -0.10739934 -0.14446054 0.0059871464 -0.120749526 0.09147823 0.08329741 0.07324704 0.12835842 -0.0033132774 -0.16875768 -0.076209046 0.122908525 -0.019719778 -0.14484507 0.13652456 -0.0084627075 -0.17726968 0.08718973 0.033558484 0.0072718672 0.028590806 0.023993859 -0.062704 -0.14087537
there 0.086598046 0.0842295 0.14652397 0.14496669 0.10913281 -0.079115406 -0.022994744 0.0021549114 0.029512689 0.0014892605 0.023402449 -0.15169804 -0.16757147 0.19841136 -0.017563345 -0.022483405 -0.21270388 0.0638828 0.15288365 0.12923597 -0.0917471 0.00087819167 0.011896946 -0.034720328 -0.040625818 -0.06318392 0.24926886 0.044813298 0.082631625 0.2317056 0.015165352 0.092919484 -0.11831402 -0.0010602665 0.21799974 -0.04207863 0.03466701 -0.12833191 0.057100546 -0.05153833 0.03229466 0.10412889 -0.03783676 -0.079153836 -0.16617788 -0.109640904 -0.058144268 -0.25236532 0.16331255 -0.008174867 -0.08896462 -0.11736062 -0.11718147 0.20264083 0.10124607 -0.02225919 0.09145386 0.045524143 0.034341224 0.03003695 -0.09759615 0.019726498 -0.28000504 0.010366569 -0.004293198 0.110106945 0.20505252 -0.08041472 -0.058976978 0.13842444 0.08707317 0.028358992 -0.08120135 -0.118082896 0.0016171004 0.19673967 -0.024438724 -0.019273428 -0.0660245 -0.07217937 -0.002101851 0.054812364 -0.0136696 0.021078374 -0.09483987 0.024612037 -0.14581484 -0.08605948 -0.052584797 0.027549723 -0.03274835 0.051968683 -0.10543699 -0.13022973 0.089995936 0.044967826 -0.017229222 -0.048167598 0.030676061 -0.040987767
see 0.05219223 0.1086719 0.022631856 0.020409897 0.12672469 0.015627874 -0.07583813 -0.19840766 0.09024101 0.013280619 -0.009544051 0.038537834 0.02548412 0.12588319 0.035276525 -0.102872714 0.03569145 0.12959948 0.04526136 0.18011138 -0.007499119 0.07191059 -0.004289125 -0.14160593 0.14019527 -0.038002595 0.06646618 -0.02229897 0.010416825 0.13240017 0.014218159 -0.24022816 0.028471315 0.037319973 -0.013614005 -0.12904826 0.121144824 -0.10174873 -0.038393583 -0.014445875 0.2215912 -0.1313704 -0.1146105 -0.02163449 0.101952605 -0.03636378 -0.004745423 -0.07575696 0.18114966 -0.1381001 0.101150304 0.0003100969 -0.11946175 0.15210977 0.18041316 -0.038913805 -0.07663159 0.0022469936 0.016938588 -0.06728612 -0.045355674 -0.15032662 0.057765752 -0.014534062 0.023362104 0.016069463 -0.028740278 0.21563101 -0.052220702 -0.04629381 0.00055202725 -0.021324614 0.0022655937 0.041673172 0.016380642 0.036624163 -0.06909618 -0.11925206 -0.10749957 -0.068891495 0.052117106 0.021284992 0.018886032 0.10661291 0.23518527 -0.21131016 0.06809493 0.069840014 -0.035880283 -0.14474267 0.035025246 0.0019583418 -0.14390475 -0.074415326 0.014785453 -0.09036446 0.024846159 0.08767071 -0.051608242 -0.1624107
or 0.009248364 0.09537082 0.16124913 0.07423465 0.035145465 -0.045247052 -0.067598626 -0.13023546 0.032090377 0.12587783 0.1040517 -0.12647575 -0.047636002 0.057342906 0.13244638 -0.09312753 -0.06395471 0.10971771 0.0029113127 0.11591 0.12169481 -0.051422596 -0.14559945 0.045560777 0.08082965 -0.09346266 -0.07242798 -0.03533544 0.09476778 -0.08792342 -0.021644965 0.03737922 -0.17563537 0.06699039 -0.002524202 -0.0732169 -0.13997804 -0.15784398 0.054593634 -0.07817244 0.033981033 0.1425192 -0.057952736 -0.10878733 0.012500492 -0.0796302 -0.12438243 -0.07497103 0.09236638 0.11338143 -0.10084294 -0.07613416 -0.17972909 0.13113438 -0.0778353 0.05986642 0.082964696 0.17945667 0.16201456 -0.1021639 -0.008088203 -0.076487415 -0.104461245 -0.12526159 -0.13680167 0.15678541 0.09599626 -0.13891794 -0.057829462 0.106305264 -0.026399327 -0.02433279 -0.20107962 -0.08995651 -0.1078737 -0.059891354 -0.09502405 -0.049484354 -0.051104635 -0.014232436 0.13024428 0.11204903 0.15515423 0.0067644315 -0.17230806 -0.09278649 -0.16965254 0.086301625 0.16200867 -0.136516 0.11428938 0.084840484 -0.16203761 0.08592998 0.13185726 0.08016322 0.11387357 0.06408248 -0.07698873 -0.05353066
could -0.055159494 0.0899608 0.017519904 0.05661775 0.12993959 0.0068396768 -0.11178991 -0.0834144 0.059120588 0.14886893 0.11223871 0.12547669 0.095201984 -0.019461948 0.13286178 -0.072960146 0.05938019 0.0037341167 -0.029709278 -0.004199419 0.0004211896 -0.00696141 -0.024994895 -0.09030261 0.08688539 -0.063332625 0.19330479 -0.18586475 -0.059405215 0.10456222 0.011086383 -0.259786 0.098739035 -0.042930484 0.06758981 -0.018536815 -0.019439068 0.003726835 -0.1631933 0.103874646 0.22057083 -0.21073411 -0.09851182 -0.0178588 -0.08380704 -0.11574471 -0.14406408 -0.1586953 0.18685322 -0.08946397 0.28453562 0.0064475834 -0.18240453 0.025152886 0.042412113 -0.18725714 0.0011279004 0.18635789 0.083164446 -0.16751577 -0.012936182 -0.06711971 0.019792398 0.036442794 -0.10409841 0.13332644 0.025962774 0.24646138 -0.13639662 0.04604635 -0.023350336 -0.08592673 0.12612891 -0.06272378 -0.109053865 0.16620822 -0.037808426 -0.014632796 -0.011574959 -0.1153286 0.05203672 0.1117431 0.06319718 -0.06937289 0.20764306 -0.28370994 -0.16846494 0.18886429 0.0026067325 -0.12972149 0.04114359 -0.13096558 -0.2790059 0.02148126 -0.026642792 0.029866396 -0.029806722 0.13861573 -0.14050068 -0.23059511
would -0.031788055 -0.13671213 0.092845604 0.041333247 0.1563988 -0.13107538 -0.038146406 -0.07249438 0.13860632 0.1354053 0.07916728 -0.053680416 -0.027251821 0.021084402 0.12885885 -0.18077189 -0.02789188 0.08379296 0.031474754 0.0784929 0.048191816 -0.04913554 -0.11285213 0.044128615 0.18582788 -0.09322644 -0.046386372 0.022062417 0.014938172 0.01842026 -0.057762146 0.045984086 -0.1072901 0.09757754 0.12945151 0.04402428 -0.1428813 0.0338641 -0.07808245 0.056127172 0.048502065 -0.025574692 -0.05786407 0.017753115 -0.09072634 -0.05751365 -0.16714732 -0.08095266 0.2007784 -0.0934541 -0.019609522 -0.035964273 -0.16343729 0.047711376 -0.025864037 -0.03024039 0.040896215 0.1164214 0.14014909 -0.123938024 -0.026383305 -0.063963704 -0.039475888 -0.048395675 -0.05817842 0.14802858 0.08138195 -0.07428316 -0.016014269 -0.06602844 -0.0015835698 0.04225953 -0.12170967 0.0051194355 -0.06055236 0.11249244 -0.068416625 -0.06833608 -0.051408015 -0.11085772 0.016640298 0.051719647 0.057024475 0.06287835 -0.05183266 -0.06282051 -0.05654321 0.025333732 0.0019706883 -0.08347635 0.14976618 0.013749251 -0.102507934 0.013080037 0.06063703 -0.006495796 0.042998094 0.13582428 -0.0805064 -0.18552612
think 0.062191762 -0.11474215 0.062846005 0.0559651 0.06105974 -0.106859304 0.006230406 -0.036409263 0.13711067 -0.05052743 0.17347205 -0.00080568227 0.033480454 0.066667244 0.023714364 -0.07504376 0.07194477 0.13607861 -0.13166745 0.13517918 0.12174441 0.08596347 -0.060571034 0.004103477 0.13154365 0.0383753 0.096500844 -0.00074189506 0.04020245 0.06157097 -0.17181672 -0.1550159 0.08090516 0.12707372 -0.046014495 -0.0046714703 0.1529329 0.004897123 0.0845291 0.11562608 -0.03960791 -0.11053631 -0.121941976 -0.10546769 -0.23603219 0.097446404 -0.17727466 -0.10847739 0.084765635 -0.041415237 0.002712652 0.04376485 -0.045941792 0.049773112 0.100134455 -0.2160974 -0.025482273 -0.029087849 -0.051125173 -0.18561153 0.042177185 -0.21734026 -0.044697624 -0.02323402 0.05273934 0.050529286 -0.018747356 0.16895778 0.030781323 0.039340235 0.15952773 0.09212942 -0.009860594 -0.05251262 0.01157202 0.20591761 -0.16900389 -0.17416395 -0.13178374 0.025663914 -0.026358742 0.062665 0.11496505 -0.024066325 0.15436691 -0.18982138 -0.0087614255 0.079762794 -0.10487909 -0.16109394 -0.05069861 0.11491216 -0.119030595 -0.05466115 -0.062810905 -0.08478135 0.046910804 0.027505513 -0.0122863185 -0.029946214
them -0.043628965 -0.015141495 0.00017310074 0.07229942 -0.031527907 0.031020824 -0.05281411 -0.062066272 0.110596165 -0.012271353 0.10888403 0.021155277 -0.12470856 0.14544722 -0.017149523 -0.05915378 -0.031740982 0.045907296 -0.03636372 0.021928025 0.0432346 -0.009817842 -0.052028555 -0.04287635 0.0498692 -0.06617663 0.06624624 -0.017598772 0.1487065 0.05877188 -0.012391906 -0.004717903 -0.15221462 -0.025687113 0.062499292 -0.02323017 0.04303236 -0.11691759 0.011862241 -0.0031644574 0.14729756 0.056459755 -0.05807724 0.0018608876 -0.06665122 -0.13374016 -0.04718623 -0.04724359 0.00084280164 0.061597165 -0.060212296 -0.013682126 -0.047106184 0.025248423 -0.0067363954 -0.016521886 -0.014980018 0.022186236 0.026562925 -0.021383852 -0.076699875 -0.0628558 -0.21510501 -0.067268044 -0.067536704 0.11684025 -0.0043955655 -0.033520393 -0.085144214 0.0036310283 0.002580702 -0.050282508 -0.035208125 -0.025418874 -0.09888883 0.0024563232 -0.040265035 -0.10330294 -0.087759756 -0.17353845 0.0374617 -0.0028977566 -0.060423672 0.049818236 -0.014186023 -0.10523363 -0.097994894 0.0879489 0.06907008 -0.036707625 -0.07449222 0.040187273 -0.08454781 -0.0443924 0.07679783 0.02672803 0.17156547 0.029590262 -0.07900283 -0.072531104
know -0.05875493 -0.11873428 0.022193942 -0.030675303 -0.006352133 0.03390551 -0.05595936 -0.0537477 0.035815723 -0.08692149 0.0775769 0.071812846 -0.014537031 0.012748555 -0.05926915 -0.109238625 0.089840025 0.090209685 -0.020210322 0.10657237 0.13433863 0.065096445 0.011798057 0.024359617 0.07801289 -0.018530527 0.18049262 -0.01941399 0.020016158 -0.097177334 -0.10030142 0.025025424 0.013609877 0.032623045 -0.039752122 -0.18075147 0.126507 -0.107374884 0.18860923 -0.039979946 -0.044607025 -0.21822469 -0.15410931 -0.0049973843 0.12510812 -0.009420057 -0.12496456 -0.058220927 -0.02546463 0.076182805 0.049729764 -0.061019193 -0.040586606 -0.04944868 0.023784924 -0.06397669 0.03963935 0.0043833186 -0.06723569 -0.12306134 -0.06361651 -0.21851502 -0.061396528 -0.026041998 0.0010142617 -0.046676792 -0.027483918 0.10245518 -0.075932704 -0.05063504 0.0014605158 -0.055142816 0.0071666557 -0.10414183 -0.052131236 -0.013981444 -0.13397418 -0.118605584 -0.03221109 0.026309894 0.17874862 -0.035481546 0.07546025 -0.032995634 0.021577056 -0.07473068 -0.018308863 0.025283998 0.046887886 -0.0378879 -0.030536901 0.09927156 -0.034649506 -0.05673896 0.009156125 0.04358622 0.16330308 -0.040619627 -0.03255852 -0.0019676902
rabbit -0.12656033 -0.05087106 0.21729961 0.076568365 0.19491248 -0.03292294 -0.0959461 0.007917008 -0.030543827 0.03207359 0.11566601 -0.061673637 -0.020538123 0.023811268 0.017595464 -0.041966826 0.017531658 -0.05049483 0.1436461 0.016544031 0.14076321 -0.2058451 0.053212278 0.09717623 -0.013142732 -0.030511484 0.00094779325 0.10917165 -0.03801201 -0.045104228 -0.07021363 0.046778996 -0.15851587 0.13797912 0.003409335 -0.047037173 -0.09685624 -0.03614386 -0.056592885 -0.011431652 -0.020295167 -0.033008695 -0.10032046 -0.0072428584 -0.0043043364 -0.02576515 -0.058871496 0.06635128 -0.04234351 0.23332764 -0.0002922778 -0.21032754 0.003705233 -0.025767773 -0.19963326 -0.11253073 0.08318647 0.20686363 0.19939831 -0.015268982 -0.09805505 -0.029400004 -0.0761356 0.03363601 -0.022291098 -0.050590016 0.18323658 -0.35400534 -0.17062034 0.014273758 -0.1402034 -0.1612377 -0.025048574 -0.14955905 -0.08976129 -0.11986212 -0.016170606 0.009038924 0.05973845 -0.037855115 0.08053257 -0.023768174 0.19751906 -0.0034451494 -0.15590923 -0.11574235 0.00348668 0.04387421 0.19925965 0.061508384 0.0682183 -0.00061780727 0.06345873 0.05616907 0.15309888 0.18581253 0.035522643 0.07700613 -0.03483138 -0.023502976
dear -0.055382516 -0.23586947 0.053755533 0.12004237 0.012275468 -0.028820274 -0.12091133 -0.06710984 0.114945225 0.13946153 0.09633065 0.050612167 -0.09031023 0.0037767661 0.12805009 0.008870345 0.005259975 0.23254918 0.0029183584 0.036069073 0.07641746 -0.00093660445 -0.1433393 0.07016577 0.0753535 -0.08398327 0.02355134 0.19443618 0.14507136 -0.06573553 -0.18057792 0.06811147 -0.11333752 0.08234886 0.024024827 -0.13247119 0.006755326 -0.1611213 -0.04709685 0.016602486 0.031126088 -0.11269331 0.017963849 -0.030667251 0.11992897 -0.11275303 -0.18034607 -0.180506 0.12272722 0.099359214 0.040157877 -0.010810233 -0.1848737 -0.008752842 -0.04397644 -0.009070069 0.064281695 -0.03659431 0.19404365 -0.19319269 -0.09658447 -0.17181587 -0.07537653 -0.21176283 -0.09771517 -0.023487523 -0.061246883 0.05463788 -0.06904404 -0.087418765 0.0018114545 -0.049119268 -0.15975752 -0.023386221 0.011397336 -0.008320209 -0.18053196 -0.19022252 -0.17812057 0.18731995 -0.063131355 0.038484674 0.115689814 -0.047170337 -0.05436287 -0.10035588 -0.19153589 0.19276576 0.031302255 -0.09306309 0.15492275 0.06270475 -0.19514161 -0.010713529 0.033769697 0.07907803 0.20802623 -0.033279754 -0.076595776 -0.15844719
were -0.00040383718 0.023520773 0.16843805 0.05554385 0.13745922 -0.110038325 -0.0889561 0.00068041036 0.108044386 0.012376011 0.1025606 -0.13200161 -0.0010834679 0.1459739 0.07060873 -0.09699419 -0.021887409 0.10457589 0.072595485 0.07777519 0.09138794 -0.017433554 -0.09180733 0.06737563 0.054735273 -0.08227533 -0.00621303 0.0775529 0.032941908 -0.007218683 -0.023418587 0.077108644 -0.07237294 0.1292241 0.09210704 -0.053175353 -0.06427692 -0.027465656 0.08991481 -0.0519334 0.052587498 0.11537015 -0.16265221 -0.12715077 0.19088835 -0.07741357 -0.14682806 -0.059112832 0.05566151 0.053975224 0.008042282 -0.058322545 -0.072503634 0.038394053 -0.10097449 -0.028162517 0.053885404 0.07263153 0.13710079 -0.09607759 0.0037443815 -0.07542853 0.062057987 -0.1110402 -0.09540989 0.006873289 0.045442507 -0.06806852 -0.11722198 -0.021607505 -0.081079744 -0.04625466 -0.05954125 -0.09711607 -0.10522792 0.041911688 -0.05975259 0.00033417318 -0.020318594 -0.046653908 0.11552426 0.02226335 0.106688194 0.048748713 -0.06876853 -0.07615935 -0.07609026 0.050755665 0.060474295 0.00517814 0.12732473 0.056973148 -0.024228347 -0.013741456 0.06804704 0.08385659 0.08588985 0.05609565 -0.056829777 -0.030922176
time -0.0032425788 0.14838362 -0.05859752 -0.027696928 0.088671416 0.033548225 -0.0004935646 -0.15109363 -0.009204903 0.08651157 -0.014605088 -0.067290135 -0.03118079 0.0677402 0.070463285 -0.036946855 -0.084823474 0.0009966332 0.08916769 0.052985854 -0.010216094 0.042760707 0.03713984 0.057834268 0.101276234 -0.06526764 0.034347627 -0.17124836 0.03609196 0.12387125 0.051205933 -0.09416592 -0.00753837 0.0056246966 0.020333426 -0.049600326 -0.00057008193 0.036906183 -0.16506198 0.06697837 0.12625888 -0.037386008 -0.0069458704 -0.07207214 -0.049288955 -0.0023889113 0.037273396 0.047605526 0.058046106 -0.11795881 -0.060162976 0.016423462 -0.045310263 0.063868664 0.048068024 -0.06848405 -0.027068993 0.076280035 0.07561733 0.031950716 -0.01681491 -0.062530205 -0.051460043 -0.020186959 -0.08972129 -0.06756178 0.03621921 -0.03681997 -0.017805722 -0.0026473878 -0.023249706 0.010051204 0.04443271 -0.0013589608 -0.013910511 0.03636721 -0.124700174 -0.007054918 -0.018859087 -0.07213492 -0.0072860196 0.07292906 -0.031382155 0.08964594 -0.016960936 -0.13115473 0.016915683 0.12373527 -0.0349211 -0.0038073165 0.028174946 0.050056666 -0.031542588 -0.10105315 0.04769962 -0.0496843 -0.09285505 -0.037442185 -0.06012268 -0.17388546
get 0.00086176815 0.056229457 -0.12281647 0.007122838 -0.021335326 -0.08957791 -0.10728529 -0.10048927 0.0524044 0.030846475 0.098252 0.012004378 -0.043277074 0.1580469 0.04791226 0.0021884828 -0.18876638 0.03319739 0.11676882 0.15487894 0.09909751 -0.07120289 -0.015350123 -0.1252442 0.10334438 0.03946908 -0.13390659 0.12645178 0.14971107 -0.008703383 -0.059481688 0.18664682 -0.14304042 0.00602808 0.12337715 -0.07366959 -0.09322238 -0.11660723 0.12852827 0.010241646 0.059026122 0.00749031 -0.06840829 -0.14212066 0.07772569 -0.23484127 0.0029309758 -0.027113253 -0.020073235 0.015304652 -0.1171836 0.0051966165 -0.01876858 0.12842023 -0.12585212 0.075135514 0.06038075 0.015890824 0.07137785 -0.048666876 -0.23459013 -0.16037494 -0.100306734 -0.16224608 -0.14270271 -0.050677445 0.062384583 0.03415214 -0.11799836 -0.018647628 -0.05336595 -0.17439823 0.01863599 -0.09428397 0.027283475 -0.021413242 -0.09132684 -0.1773223 -0.087249584 -0.16959764 0.1514581 -0.0076304404 0.060095817 0.24936388 -0.09876998 -0.065316565 -0.116590224 0.09100693 0.09734063 -0.11854839 0.034921747 0.038279966 0.009588619 0.037352093 0.07935119 0.08211275 0.06833019 0.07101985 -0.010756454 -0.09171485
here -0.09946001 -0.13253298 0.040215425 0.06014972 0.042909008 -0.065905966 -0.16993792 -0.09624394 0.08345967 -0.007726969 0.02052195 -0.00379197 -0.0074112704 0.0562088 0.10269025 -0.054601472 0.01701177 0.13568938 0.044794824 0.029945422 0.0589152 -0.08434188 -0.104747854 0.06107653 0.03375475 -0.06828564 0.030250913 0.2059539 0.041895155 0.03369068 -0.047387853 -0.05818734 -0.1105293 0.021054152 0.02462045 -0.035062592 -0.07500435 -0.13676389 0.02221235 0.03614365 0.013653372 0.114363365 -0.145169 -0.0679602 -0.092846125 -0.09374317 -0.081561364 -0.061511703 0.11705397 0.09063537 -0.02266883 -0.019806504 -0.100352265 0.041385323 -0.013027239 0.09869568 0.123134404 -0.008864763 -0.020836003 -0.012190596 -0.1072123 -0.09210063 -0.11884096 -0.045811847 -0.057618365 0.19859774 0.07596419 0.085846946 -0.11774182 -0.037563514 -0.045008764 -0.05461852 0.027401341 -0.13817705 -0.10627461 0.038600463 0.06583669 -0.04598614 -0.06991121 -0.07285922 0.051622525 -0.044894736 0.03662186 0.028001795 0.018009009 -0.022679359 -0.166634 0.11503805 0.039241206 -0.09419762 0.07100344 0.0493398 -0.106842965 0.10569048 0.0760667 0.08046285 0.1291438 0.051383223 -0.02961132 -0.033649463
must -0.11066128 -0.2978111 -0.0085378215 -0.10066509 0.027477061 -0.08119423 -0.05969853 -0.03356992 0.16747764 -0.090926655 0.1845139 -0.12630042 0.106496766 -0.03918805 -0.07481341 -0.16542935 0.16645965 0.15880832 -0.100845896 -0.03927353 0.13069078 0.011535973 -0.10924915 0.26287356 0.10747856 0.03012032 0.16329378 0.018610198 -0.013463026 -0.041745525 -0.08641198 -0.09028601 0.013921308 0.18404579 -0.1543446 0.047263257 -0.069853686 0.01916531 0.036193315 0.047696292 -0.117677614 -0.08736738 -0.12505277 0.09394606 -0.16579951 -0.022213975 -0.2054162 -0.036153942 0.08152102 0.049598202 0.03900541 -0.01727613 -0.011764472 0.016921492 -0.07558111 -0.16157085 0.053701542 0.07745379 0.044362612 -0.10612019 0.11354851 -0.11586152 -0.01762222 -0.0245908 -0.06553963 0.15681605 -0.0029284125 -0.003117677 0.07883603 -0.043530524 -0.005862803 0.042122986 0.004725217 -0.059877563 0.0744339 0.16625224 -0.18026833 -0.088638514 -1.35902665e-05 0.06966084 0.07261119 -0.04775661 0.08363089 -0.011490243 0.22508337 -0.061257947 -0.14221074 0.0914389 0.025915654 -0.058707856 -0.049875457 0.081750706 -0.055237886 -0.04384197 -0.030654527 -0.022073055 0.19522563 0.023352308 -0.029028773 -0.04456218
my -0.2103217 -0.032003302 -0.08286249 0.14962254 0.07966944 -0.088109225 -0.12999982 -0.131589 0.11065852 0.21685988 0.106820315 0.008933923 -0.1752567 0.082017876 0.118193224 -0.09955622 -0.100059524 0.13569263 0.0741087 0.07078351 0.18738142 -0.08712792 -0.20133165 -0.08255896 0.0109794475 -0.036494832 -0.25971037 0.1941606 0.13378325 -0.17694546 -0.16394708 0.09511533 -0.20441209 0.091053985 0.13031657 -0.17680512 -0.11793533 -0.22200927 0.027503438 -0.053404924 0.065445974 -0.03154432 -0.029059708 -0.0859666 0.2045044 -0.16985737 -0.08546411 -0.25422153 0.14112577 0.14364374 -0.0834768 -0.14905189 -0.11378427 0.06679102 -0.14077999 0.09368973 0.10927959 0.07886782 0.17555827 -0.15186836 -0.1029524 -0.07309992 -0.17447494 -0.21229172 -0.08427567 -0.12838677 -0.022308152 -0.08694235 -0.121439025 -0.0068767546 -0.08718788 -0.10248865 -0.10122155 -0.06299937 -0.053040907 -0.18858646 -0.15586495 -0.18679078 -0.2030061 0.057081833 0.06596914 0.112198465 0.08390157 0.017926523 -0.090269074 -0.103126414 -0.12696125 0.27410313 0.15269932 -0.044370025 0.11287965 0.16704719 -0.12717833 0.10842095 0.064015046 0.1497883 0.092052415 0.118806295 -0.100554585 -0.10938837
by -0.12524655 -0.12891541 0.10318381 0.033933997 0.12604894 -0.045773845 -0.0838207 -0.021914354 0.050920658 0.016265178 0.09352596 -0.046078846 -0.06579556 0.07148768 0.047386624 0.046537932 -0.05889162 0.030522514 0.20312548 -0.036122132 0.14113984 -0.08260161 -0.06850464 -0.0055246926 -0.07626946 -0.105031304 -0.19072837 -0.09008794 0.039300613 0.012049287 -0.10955148 -0.09754719 -0.13993926 0.13306719 0.0035887994 0.029005712 -0.08331286 -0.027953403 -0.05871183 0.10149918 -0.03341644 0.028300127 -0.13296916 -0.07231174 0.05252726 -0.006009138 -0.09942703 -0.11320526 0.07547659 0.10674231 -0.08802733 -0.110619776 -0.038002476 0.053358614 -0.19294313 -0.106830075 0.14079443 0.14721696 0.082134835 -0.075829394 -0.028351447 -0.033879478 -0.08034227 -0.038711756 -0.056385174 -0.0016224638 0.20138547 -0.1135945 -0.15305392 0.07386102 -0.13079412 -0.052957702 -0.079591155 -0.12147143 -0.16142066 -0.017319743 -0.045560185 -0.08410826 -0.08593774 0.04444786 0.14338577 0.01214435 0.12963034 0.058018565 -0.16717216 -0.11211201 -0.01216164 0.034976088 0.114844225 0.0057833027 0.11194371 0.08447575 -0.029695567 -0.018848887 0.13843624 0.13688461 0.07419841 0.1340788 -0.09595694 0.05032896
into -0.19419673 0.07434729 0.170947 0.028214876 0.1230245 0.022532314 -0.018621134 -0.012916238 0.029402945 0.005041681 0.06896779 0.0066093276 -0.025686577 -0.010767032 0.034347843 -0.057459388 -0.020558605 0.090692036 0.14085005 0.026757993 0.11689025 -0.16510412 -0.037273116 -0.11046126 0.0008111036 -0.18273643 -0.18085895 -0.01075602 0.069835484 -0.060394276 -0.047894318 -0.02217254 -0.15310605 0.2484171 0.09892175 -0.1437218 -0.17269674 -0.040024776 -0.071326345 -0.0011622366 0.033059016 0.019796895 -0.13629912 -0.047534406 -0.015304916 -0.07749419 -0.10313549 -0.0030473866 0.09674641 0.16873218 -0.046591036 -0.12182264 -0.0646362 0.11332829 -0.17301016 0.05556928 0.030760763 0.22615494 0.24744362 -0.09060362 -0.07373716 -0.03892985 -0.039261393 -0.09589094 0.0037102327 -0.04343435 0.13642311 -0.2510572 -0.08407235 0.023371259 -0.14000082 -0.13240632 -0.008169384 -0.110107616 -0.053022318 -0.0032850977 -0.08046241 -0.014871106 -0.099704556 -0.0044812113 0.08307322 0.04406939 0.15975483 0.035168014 -0.0761225 -0.016307767 -0.020814199 0.028450992 0.18722618 0.047900118 0.19334307 -0.03906353 -0.015847933 0.09410052 0.20174164 0.1052695 0.061121706 0.16565773 -0.08443745 -0.07650591
found -0.08034361 0.021919142 -0.0049694204 -0.037849434 0.041188408 0.107935004 -0.11520849 -0.15635644 -0.060468495 0.2315243 -0.083312325 0.11249309 0.04551029 -0.0165534 0.06465657 -0.03579547 0.01865809 -0.038740497 0.070610344 -0.09955866 -0.05768281 -0.09785782 0.046199672 -0.10712356 0.0561781 0.021114536 0.0013274634 -0.2565816 -0.015142189 0.2275335 0.12988593 -0.33208376 0.07585463 -0.022643827 -0.08425787 0.028834471 -0.11391715 0.06031121 -0.2647209 0.07229955 0.22173145 -0.0195691 0.115826786 -0.0024318811 -0.090231106 0.08218368 0.005246859 -0.013824777 0.21895486 -0.046894096 0.090226345 -0.026649173 -0.19768032 0.06800863 0.0013281102 0.09436874 -0.056588504 0.11288775 0.076616235 -0.048445545 0.017703274 0.024354266 0.060011856 0.055014893 -0.084080614 0.24656242 -0.02319828 0.049928647 -0.043910895 -0.038928792 -0.0024825498 -0.0035119082 0.09426018 0.009698728 0.007232492 0.029259523 0.03666698 0.00054400996 0.020494103 -0.09302487 -0.06814622 0.07866988 -0.10225957 -0.04187937 0.122879654 -0.113525294 0.067350626 0.04691099 -0.078797825 -0.10834199 0.02860603 -0.073055156 -0.12717009 -0.010278739 0.011683473 -0.016316319 -0.05062343 0.093841754 -0.02723073 -0.2000874
such 0.042960636 0.0025736524 0.15766332 0.12708724 -0.013133028 0.047457702 -0.025935676 -0.012164111 0.027216267 0.15572654 -0.009612087 -0.30366197 -0.10289162 0.06499175 0.03881311 -0.044043995 0.02364879 0.04444748 0.0018016826 0.05523771 0.058119874 -0.047397643 -0.0570529 0.13757393 -0.0064855884 -0.105745666 0.016012434 -0.12746876 0.044028595 0.026667684 -0.09019554 0.08603885 -0.15938771 0.041334372 0.05085589 -0.00066770776 -0.023188638 -0.09471406 -0.0633159 -0.087739006 0.06908804 0.18884768 -0.060870275 -0.00015819026 -0.063050054 -0.045651488 0.026640465 -0.05559131 -0.05474777 0.077673055 -0.013692496 -0.046464823 -0.13710397 0.2272076 -0.06524929 0.06709945 0.058177225 0.24442665 0.192767 -0.030556807 -0.035480175 -0.1137514 -0.048164513 -0.14080067 -0.071682416 0.023080168 0.08772745 -0.18904036 0.04703121 -0.02342466 -0.03908478 0.0148169 -0.1404631 -0.046235807 -0.024921099 0.071077496 -0.17641112 -0.039363284 -0.084997654 0.008704583 -0.0023534647 0.14162914 0.09566256 -0.015227186 -0.13691813 0.06840239 -0.18463112 0.061346497 0.13503018 -0.03294601 -0.039183598 0.080563486 -0.05558666 0.028282713 0.12786627 0.014036655 0.16340305 0.022964409 -0.017187031 -0.051425613
began -0.07523181 -0.009535448 -0.011601052 0.0053630713 0.029790357 -0.0013768101 -0.07806782 -0.14110318 0.028652888 0.099944755 0.02326234 0.025068954 -0.026170624 0.0870216 0.096907735 -0.03801756 -0.10460299 0.1006981 0.119221024 0.14829506 0.087200426 -0.07118082 -0.0546864 0.018527307 0.20742546 -0.027743962 0.08289303 -0.0008022328 0.07097245 0.084216796 -0.012157816 0.032123685 -0.08292372 0.010401697 0.08475608 0.008994779 -0.13318188 -0.069492765 0.07969062 0.06550954 0.14682451 0.06565286 -0.03794629 -0.10168663 0.018610323 -0.08582399 -0.1574132 -0.06784355 0.093539655 0.058468122 -0.08988399 -0.011207394 -0.106746525 -0.02284167 -0.067654565 0.026167748 0.055046473 0.024819545 0.060761858 -0.12942655 -0.11796774 -0.13199356 -0.0728622 -0.04507301 -0.071565345 0.11306295 0.09556415 0.05728628 -0.070100196 0.016618552 0.005993447 -0.15110296 -0.03616105 -0.08813924 -0.044491887 0.036725514 -0.11528654 -0.07470153 -0.032094643 -0.17466864 0.12899335 0.028464606 -0.008972692 0.0758463 -0.049182728 -0.12161779 -0.1017363 0.12758505 0.083773114 -0.17947675 0.07113503 0.04369103 -0.14823788 0.001663871 0.05646757 0.086335935 0.09217998 0.1210595 -0.111250944 -0.12727602
soon -0.014927805 0.04972006 -0.027252907 0.044484768 0.07601122 0.04225581 -0.108450234 -0.03244621 0.06435581 0.08936335 0.034389384 0.005298891 0.011896789 0.023504963 0.14647867 -0.03276345 -0.03159539 -0.068916015 0.04801053 0.1203709 0.0006971461 -0.091403894 0.023881223 -0.0707424 0.09465811 -0.023917813 0.05685061 -0.11576155 0.054101624 0.21147153 0.044014174 -0.09678697 0.02505352 0.080218 0.0047010654 0.08226757 -0.01343748 -0.0057642153 -0.15096891 0.12232302 0.14831789 0.045355134 -0.04298743 -0.10044101 -0.10843685 -0.073526576 -0.055591818 -0.028834779 0.109275304 0.04739147 0.023885848 -0.07374909 -0.19429436 0.11075881 0.0039603324 -0.03139124 0.07336339 0.06937085 0.010630013 -0.105156384 -0.015855318 -0.058074705 -0.08695421 -0.053636946 -0.075853035 0.16090907 0.0407417 0.07214701 -0.06403898 0.061235413 -0.044210363 -0.039092842 0.051907785 -0.068373986 0.03273817 0.07898269 0.03694478 0.050244287 0.028703924 -0.08262426 0.012438745 0.10113947 0.039648652 0.11415988 -0.022641156 -0.13952316 -0.006425071 0.1310788 -0.047515288 -0.15517153 0.0338942 0.035435133 -0.16333489 0.13698551 0.07636672 0.013597295 -0.03581328 0.10774737 -0.040911935 -0.12601617
m -0.025072858 -0.30154252 0.033179443 -0.10408405 -0.036923748 -0.13514137 0.044392206 -0.07194066 0.27501303 -0.12396825 0.28627875 -0.019895269 0.17562298 -0.16210632 -0.10691443 -0.23672666 0.2648512 0.066565774 -0.21879542 0.12587336 0.20086838 0.051923983 -0.16029283 0.18379493 0.29230797 0.054783925 0.15844835 0.14108919 -0.026601085 -0.028278954 -0.33070484 -0.1353001 0.16562325 0.31066462 -0.1654511 -0.021297164 0.06326138 -0.044272587 0.17464268 0.2092072 -0.14970723 -0.24845381 -0.30891714 -0.03956022 -0.25957948 0.17415449 -0.27558312 -0.051975645 0.041008856 0.042800367 -0.092925906 0.090131015 0.11131965 -0.09702023 0.11011212 -0.29186684 -0.13139632 -0.105377726 0.017752087 -0.258935 0.12512532 -0.26463708 -0.0809814 -0.099207595 0.056279417 0.26833287 -0.17452225 0.19397588 -0.062356886 -0.111843534 0.11406931 -0.019916557 0.13515028 -0.13701 0.12424066 0.19470625 -0.26633614 -0.3073877 -0.104713775 0.07179801 0.23632418 -0.08094665 0.18819042 -0.24242263 0.1522221 -0.25492808 -0.13128565 0.17573518 -0.06098822 -0.12215805 -0.107303046 -0.01894923 -0.29297245 0.0167844 -0.14311247 0.008378128 0.22923051 0.17666854 0.021640945 -0.024316082
quite -0.0054518906 -0.026944252 0.08887979 0.099856384 0.09538561 -0.05243882 -0.051377714 -0.1051751 0.04846465 0.1633538 0.050684556 -0.025235852 -0.050779145 0.10198098 0.071975745 -0.08632386 0.029374149 0.032896083 0.052387092 0.09757522 0.0010073726 -0.06457302 -0.0734944 -0.0440826 0.13925512 -0.1382475 0.04351796 0.008060033 0.12148092 -0.008275376 -0.034558866 0.0025368086 -0.13723233 0.1241454 0.042193286 -0.050994705 -0.041986316 -0.09217224 0.02146665 -0.054262344 0.04263966 0.021956565 -0.09355025 -0.06447281 -0.02347945 -0.110310994 -0.06344034 -0.11068707 0.09768193 0.018904317 0.0071129114 -0.1296069 -0.16937958 0.08499808 -0.014813717 -0.0015847917 0.08939393 0.09996686 0.046927176 -0.06458409 -0.07793157 -0.041956104 -0.031925257 -0.08387478 -0.12725668 0.13206197 0.11712712 0.0050631072 -0.049651057 0.072942056 -0.08826261 -0.100175254 -0.13858177 -0.1274709 -0.09151062 0.13808501 -0.08818163 -0.055906035 -0.025112873 0.0034433901 -0.014859874 0.016214317 0.048431803 -7.126015e-05 -0.007297212 0.018309603 -0.074190915 -0.003074367 0.06577065 -0.09384742 0.029787416 0.019741496 -0.1397149 -0.02761678 0.07296291 0.11165339 0.06379673 0.09157021 -0.09592736 -0.113030024
then -0.042986907 -0.15416849 0.021898229 -0.015845919 0.011647117 -0.021075087 -0.06147371 -0.04782242 0.06754924 0.049862985 0.028753402 0.045622077 -0.040243223 -0.03855796 0.10545932 -0.13423383 0.038517777 -0.014957962 -0.038632218 0.0521234 -0.0038243197 -0.07662242 -0.09728279 0.073503636 0.18305251 -0.01762943 0.13803968 0.03953747 0.039160106 -0.04868267 0.03939657 0.04275741 -0.06596132 -0.024408197 -0.042819325 -0.020006431 -0.120316975 -0.07448215 -0.0035267486 0.12993325 0.06063335 0.07699481 -0.09344523 -0.10889556 -0.13199705 0.037563875 -0.083266154 0.016552087 0.1223484 0.035620436 -0.07501026 0.013911041 -0.10533604 -0.07061718 -0.09033603 0.005868029 -0.016835935 0.06512677 0.03861523 -0.039321937 -0.005995845 -0.034813367 -0.10167453 0.0021859165 -0.09713025 0.17110327 0.030461522 0.012780494 -0.0968686 0.038682744 -0.010574486 0.044435862 0.025029879 0.019795405 -0.05302518 0.031641066 -0.057526346 -0.08215251 -0.05919404 -0.10028943 0.07391746 0.09763749 -0.025275026 0.026428914 -0.017721467 -0.07335115 -0.08161482 0.16879557 0.018290887 -0.118755825 0.0499789 0.0030709896 -0.18083048 0.034186866 -0.004841015 0.030788904 0.051133025 0.021593848 0.0035789644 0.021233214
off -0.120617434 -0.063836746 0.04429728 -0.0002122951 0.07849895 0.059402857 -0.093111776 -0.068270065 0.11156447 0.07206707 0.103248596 0.08125966 -0.028021056 0.0935883 0.120756134 -0.0073477654 -0.08605014 -0.027804565 0.084913895 0.013431723 0.07529924 -0.114115484 0.021811286 -0.065220624 0.074844934 -0.04828611 -0.11728885 0.043787733 0.097185895 -0.004841737 -0.052085172 0.08320333 -0.18682726 0.0639523 -0.00045838766 -0.16694832 -0.08858795 -0.071221866 -0.0018120409 0.013138279 0.110889226 -0.04214436 -0.05649238 -0.103185184 -0.037063334 -0.042056695 -0.16727257 -0.07191038 0.06916187 0.18316029 -0.08268517 -0.079118215 0.0014033844 -0.0063939444 -0.1163712 0.033937175 0.092054136 0.04343528 0.07597477 -0.03583156 -0.05189636 -0.14090975 -0.13928397 -0.015466762 -0.11477622 0.07775732 0.05089263 -0.033827025 -0.14011142 -0.017821897 -0.06302149 -0.112007596 -0.037763588 -0.15293148 -0.16768701 -0.038166538 -0.032130226 -0.059212703 -0.05578482 -0.15943635 0.1431216 0.012739949 0.060502212 0.054155104 -0.0075140484 -0.18612309 -0.17513546 0.12507455 0.10696288 -0.15149224 0.1691607 0.01858894 -0.08301072 0.11084645 0.10993638 0.1328317 0.06410057 0.16114493 -0.15019582 -0.06076772
now -0.048131403 0.021858465 0.00054275943 0.05383751 0.02372427 -0.06279344 -0.003073994 -0.09547445 0.07826055 0.07284135 0.0752693 0.010094174 -0.0120503735 0.016727356 0.04568043 -0.061685167 0.016415013 0.0049351584 -0.011503578 -0.006961707 -0.031012319 -0.014676742 -0.053540222 -0.024684941 0.1410214 0.04278705 0.074206464 -0.073118806 0.030379979 0.11687156 0.0039240858 -0.026895432 0.022618804 0.097727135 0.018378332 -0.013260692 -0.013182358 -0.02195138 -0.03136323 0.05164155 -0.023386095 -0.000864518 0.028058702 -0.041624494 -0.066622995 -0.035903912 -0.15242909 -0.06319816 0.020945739 0.088531315 0.029658463 -0.086219504 -0.080345176 -0.01271255 0.008872263 0.03371069 0.0034062944 -0.019269023 -0.048268355 -0.046276946 0.008489404 -0.027678378 -0.009054968 -0.058869317 -0.019012649 0.15833384 0.05656542 0.0650063 -0.043973338 0.08617082 0.023703527 -0.02428326 0.010630592 -0.050250176 -0.03954552 0.11230496 -0.06425909 -0.03296613 -0.08408035 0.011073702 0.072692074 0.1073611 0.1078138 -0.02090647 0.027962368 -0.12400834 -0.03723598 0.121005036 -0.04322662 -0.11351235 -0.010600707 0.0075479764 -0.13123141 0.05777888 0.041908648 0.056310378 0.0061109704 0.102457836 -0.055411115 -0.11684291
go -0.055485345 -0.0048319697 0.03158898 0.062002227 0.014733588 -0.021313354 -0.06514532 -0.05290962 0.080939285 -0.0047694556 0.091563985 0.039932936 -0.015834022 0.16217993 0.015887383 0.018925708 -0.117385946 0.061783414 0.07341218 0.076084346 0.08590231 0.00606237 -0.05002981 0.041970693 0.04249988 -0.018541213 -0.10380112 0.004406231 0.15986852 -0.0041848235 -0.11942482 -0.029527772 -0.039934464 0.043872893 -0.0087176375 -0.13517006 0.043835998 -0.13070147 0.123232394 -0.051300738 0.03235377 -0.033534408 -0.104479596 -0.09461822 0.047050465 -0.06142933 -0.078392394 -0.07588263 0.02783168 0.06441073 -0.15524068 0.0057252944 0.0007195914 0.07095646 -0.03843182 -0.06282134 0.0126872165 0.007811205 0.008739197 -0.09658492 -0.08117373 -0.1133541 -0.013407475 0.0027318897 -0.027272766 0.00936113 0.02572192 0.00029047532 -0.10045968 -0.010140207 -0.012638467 -0.041421626 -0.0403334 -0.1035746 -0.034718003 -0.00063646864 -0.07010991 -0.14795122 -0.09079178 -0.0861493 0.08297812 -0.046188325 0.0015455503 0.12021734 -0.09252956 -0.10920416 -0.019767648 0.05200783 0.051348146 -0.093896784 0.056352865 0.02082146 0.01474656 -0.098011605 0.06059032 0.11877621 0.13564609 0.064290725 -0.0056684795 -0.10928155
say -0.039128747 -0.017258752 -0.09020144 -0.01290131 -0.072036505 0.011329686 -0.05770117 -0.19774306 0.103637755 0.056980506 0.054077778 0.13365698 -0.013486548 0.069670364 0.014427708 0.052607387 -0.081531204 -0.010269905 0.074107416 0.16006225 0.07325214 -0.028350737 0.057690825 -0.068897665 0.09923897 -0.08158787 -0.07325593 0.048465595 0.15036283 -0.027483974 -0.0057593305 -0.0005128019 -0.08815139 -0.03255732 0.079280846 -0.15066753 -0.0499885 -0.1346166 0.07864385 0.05995616 0.13514821 -0.08807084 -0.031532194 0.0077248886 0.17071179 -0.030108068 0.040430628 -0.010105899 -0.03958192 -0.039692506 -0.11959834 0.026422393 -0.049969554 0.05296272 -0.028235804 0.051894017 0.01498183 -0.023845045 0.04869729 0.05565419 -0.10433944 -0.10816354 -0.14408927 0.00295024 0.048950147 -0.035561 0.011125058 0.06315449 -0.06121296 -0.054940257 -0.022610024 -0.12745747 0.08294737 -0.043143857 0.034164794 -0.0577448 -0.11276972 -0.087412 0.034854736 -0.15540117 0.14312874 -0.061903663 0.00411376 0.10282667 -0.097115666 -0.18317702 -0.041950136 0.11175803 0.022456214 -0.09284417 0.09365378 -0.020326009 -0.05705609 -0.07216213 0.10070246 0.08506398 0.09285957 0.0064853923 -0.106151275 -0.20720884
